W1: 5.107887306887416434e-01 3.698145042769932500e-01 1.429188270902594371e-01 2.061422204179830242e-01 4.830233567283510610e-01 -1.345770387043732530e+00 5.087229608994506824e-01 -2.470086560259834030e-01 1.321142276182263042e-01 -5.661121444539740817e-03 2.948905630680389578e-01 -7.152320781723986443e-01 -1.606572943849925161e-01 7.484116361684948204e-01 3.111430273371729172e-01 2.981004344958689822e-01 4.676492564868598989e-01 3.382812093429533439e-03 1.243988795601117664e-01 3.194318367835305983e-01 -4.604610280359583974e-01 4.763509871811150154e-01 1.102185531053314071e-01 1.118775114003338900e-01 4.932164102158674845e-01 -7.447121651800603370e-01 7.484407347692598189e-02 -1.567300593003277398e-01 3.274835273642354161e-02 1.462727932443792789e-01 -3.630763829649912011e-02 -5.638673164170978323e-03 6.044220390337434745e-01 -1.375414697990047230e-01 7.212070781618493132e-02 5.064403052556323143e-02 -4.685476305180570900e-01 1.428215504987311313e-01 3.526539600233033478e-01 3.698680915784464118e-01 -1.017989251267206186e-01 -5.860032755683904915e-01 1.229088174359166397e-01 5.864889380004345565e-01 1.143313004258331329e-02 2.705477527777961355e-01 1.065409260821240656e-01 6.151787545844644711e-01 1.429343650331632853e-01 2.321058591403501736e-01 1.911735070775934936e-02 -2.186411899934198599e-02 -2.740662748222629785e-01 3.726752059516686422e-01 9.405723541901450657e-01 8.414491838693660686e-01 4.622163527832499064e-01 2.480426550473507907e-01 3.842369224297955688e-01 3.487902026317412640e-01 -1.522482496046537459e-01 3.525779667465598344e-01 3.506353302121079651e-01 5.176811073304934396e-01
8.030752809267639736e-02 8.029008139647503262e-02 1.037014925386682274e-01 4.685504833436107686e-01 1.044170520888485054e+00 7.979185842494303238e-02 -1.225052633601778629e+00 -7.743758799076314592e-01 2.517825203285606328e-01 -1.127410757171110056e-01 6.326838001225741914e-01 -1.457671880581831614e+00 -3.653751828067041130e-01 -4.833764214809378734e-02 1.220043939023854607e-01 4.860578083269074812e-01 -3.189880733346283082e-01 -3.477976011677430535e-01 4.498557440121919160e-01 2.092278334700878595e-01 -1.512572803939128858e-02 1.287764862070704674e-01 -3.455665898943151015e-01 3.034508050690004274e-02 -1.469562494708426259e-01 5.330462393113204467e-01 2.788371968915770438e-01 -6.558720791635885838e-03 -6.867125168119276868e-01 -1.092057543385243301e+00 1.217836213180968630e-01 2.720925852719802696e-01 -2.126837241948671964e-01 -3.557817014920583443e-01 -5.606264950721087104e-01 6.457319309880943381e-01 2.228388648149496332e-01 7.849879040324220236e-02 -4.571481476537709449e-02 4.324894636353501243e-01 -5.130551738578915666e-01 3.318106065935655935e-01 -1.616336530169798225e-01 -2.993116253784620096e-01 2.838079428003041915e-01 -2.925007208618952137e-01 -7.084177363396532146e-01 -8.292742049409462801e-02 6.515979877195035019e-01 -1.753457455316125291e-01 3.597212402293421818e-02 -7.874426654144225379e-01 -1.201751320476238810e-01 -9.599631748585617519e-01 -2.591689436733380369e-01 4.844390502305055968e-01 -2.057181322694095760e-01 -1.369389862072545871e-01 9.271625992113865511e-01 1.034844240802752724e+00 -4.525192293211725836e-02 1.656771892775407429e-01 5.183320657026081468e-01 1.492364309483434903e-01
-5.892474433338437123e-01 -7.817353546257205243e-02 -3.139019162563809195e-01 -7.289593908166746017e-01 -1.973489116378901800e-02 8.554273659381449457e-01 -1.475977584180730717e-01 -3.286448895847546847e-01 5.620855862019079607e-01 -5.759341250605000129e-01 1.633640759795579045e-01 7.645804978392065632e-01 3.211338182169168887e-01 -3.161092257654077309e-01 2.679900755179692728e-01 9.042919333777681423e-01 -2.519823500282253326e-02 5.725685251591989822e-01 3.294807640927618908e-01 4.837748349443958540e-02 9.066542811164862714e-01 2.749762737114265498e-02 -3.143387207755725110e-01 -8.650819027695534347e-01 3.403881901757635497e-02 1.256165044189911040e+00 9.524771817458323186e-02 -1.056199466521276636e-01 -1.095751860181625598e-01 -1.243179969426580628e-01 -5.380296744766717432e-02 7.695274195357078295e-02 -6.911511984149090182e-01 -3.917069626252961401e-01 -1.062574557468407010e-01 1.688160220223075825e-01 4.439771012531940758e-02 -4.609192807599765684e-01 -2.375317039262805352e-01 -4.060663062443798342e-03 2.734715430159103677e-01 -1.072134145362363178e+00 -3.210227697815044023e-01 4.650610036561611538e-02 5.069756882484693916e-01 -9.101645999212291949e-02 -9.958179192057142748e-02 -3.024280206236705792e-01 1.655092958389573488e-01 -2.593120713640599817e-01 2.439660923788317115e-01 3.848809242213488968e-01 -2.020855342215238659e-01 3.480235213087864987e-01 6.011183146720355808e-01 1.350470704266967470e+00 -7.500655303128491713e-01 7.820912687578125688e-02 2.014510038150517379e-01 1.691721890691984254e-01 -1.990201479792651565e-02 3.869015690494699289e-01 5.281417746066999763e-01 1.686058216594305881e+00
3.478779747198056382e-01 2.988361322098655876e-02 -1.286664053691120857e-02 -5.387038621263449123e-01 -1.754676716604317011e-01 -1.312075934768975986e-02 1.348583749560315348e-01 3.102580287215422894e-01 -8.455038808356227231e-03 -4.690379272782789488e-02 -1.212870558910111515e-02 1.943864192575988081e-01 -1.049769488090386949e+00 -8.400233361824998024e-01 -7.898915258889249724e-01 -4.381449977020625552e-01 -2.944407706076688225e-01 6.799132650564343461e-01 -2.089228176515992574e-01 -6.322970748099410176e-01 6.379729968748435454e-01 -4.280885998453889396e-01 -3.278195896254627040e-01 1.244023689305433569e-02 2.800671737199544875e-01 -3.516628191426590111e-01 6.309610877921304484e-01 2.198166478984938665e-01 6.809607697025520379e-01 1.515118967434967989e-01 1.282438679138086547e-02 -5.400556409790189388e-02 -6.913340152619555923e-01 1.074425626666762001e+00 -2.331021304673113470e-01 -3.107911960063374779e-01 -4.374436978480999438e-01 1.696639572305442059e-02 -1.097141533123388926e-02 -1.345616067121594150e-01 2.028113468539003983e-01 4.057028266000444749e-01 -8.066606611745286148e-02 -5.451851663965489037e-01 -9.378242996261735298e-01 -3.187251294559179660e-01 -8.788185539515356304e-01 2.170921579036391158e-01 -5.375225959354767991e-01 -3.259573889793899726e-01 4.608116147588918465e-02 -1.493899395069781533e-01 -1.025420168917705599e+00 -6.787559932984852870e-03 2.635292185183029656e-01 -1.212065279188438288e-01 4.017288151713586664e-01 -8.303491268771786560e-01 -4.750993144392622880e-01 -1.592488303338552014e-01 -1.378156047120507655e+00 5.940704548672344210e-01 2.448577832881015659e-01 -1.189943241022466403e+00
4.073573881323409029e-01 1.582442756450693766e-01 -1.231253336946928345e-01 -3.558128814425644965e-02 1.576761717259584639e-01 -4.198992417478391026e-01 1.838709865508110844e-02 1.370975720992405680e-02 -5.138593069976157834e-02 2.344393557561218547e-02 -1.980763701550555256e-01 -1.820917931139482693e-01 2.098755018929512883e-01 1.284107865710823193e-01 2.927828028507525882e-01 3.700711656442866593e-01 3.370280713263979488e-01 -1.997556963784369866e-01 -2.476483632059321149e-01 2.269499941883241223e-01 -4.076323183135578399e-01 3.993388636267127811e-01 -3.480855737979706155e-01 1.937153179795419733e-01 -3.557294422529855976e-02 2.649711564456388654e-02 -1.026986253703251334e-01 -6.244241880752583046e-02 3.446950566723748608e-04 -5.971062016963849667e-02 1.839876289850818011e-02 -2.781581039228460395e-02 -3.341465996758517520e-01 -2.176886394178682571e-01 5.474923355154293070e-02 4.397766493342897959e-02 2.069918578056600122e-01 -1.636591321446638145e-02 5.874011392380579233e-02 3.637635792706839233e-02 2.086639268071155406e-01 4.101248835769439327e-01 7.496142769801260319e-02 2.197743216688181067e-01 6.364073852401489484e-01 2.502439191127566430e-03 7.525738960247907450e-02 -3.782710300657908531e-02 3.986484364933429864e-02 2.768481980895629579e-01 -1.248349897863884096e-02 1.687975709779967193e-01 5.279165567245499568e-01 -1.581169110001114375e-01 2.212117907415241391e-01 -5.360459814339201684e-02 3.217271410964558931e-01 -2.130706513768182431e-01 1.065388912778519215e+00 -1.610774196312569906e-02 5.081175750248664302e-01 4.241846886160807739e-02 3.717635172241782748e-01 3.660151868368898692e-02
-3.313788988236245903e-01 -2.454347686597672940e-01 -8.869150984664023185e-02 -2.331986712017680985e-01 -2.204248061008796111e-01 3.133957029301851493e-01 -1.116961842370555319e-01 5.215401570611033488e-01 -3.033464379463821636e-01 4.249033642713179182e-01 -3.537979168800073348e-02 6.569885665370074346e-01 -5.696572539185568163e-01 6.000291362068522344e-02 4.402988737354840421e-01 -7.102689848996367183e-02 -5.872418682712771121e-01 -6.768813902309608332e-01 -1.310598432145773762e+00 -9.902207732233684334e-01 1.698091163467708442e-01 5.777989051128423759e-02 -6.656453791552672250e-01 -1.388159335864509181e-01 -4.315201787440215569e-02 1.282977995918733460e-01 -2.514979527797390202e-01 -1.029858798368398116e-02 1.338015562402155578e-01 -4.976963249001150058e-01 3.827151366558340095e-01 -5.467238924356913887e-02 -6.218515868792467288e-02 2.513395806177228242e-01 7.359511179937966441e-02 -4.044228152887732186e-01 -2.770748034276797941e-03 -1.514149562799029791e-01 -5.266818652652700550e-01 -1.870553414947828397e-01 -9.059438773673304801e-02 2.527059091797702606e-01 -2.571353032102381420e-01 -1.109112247984229971e-01 -3.775506671301235850e-01 4.886649367446212894e-02 -3.623240677654668840e-01 -1.098869493559599064e+00 -6.811039263670298771e-02 -2.459994458160143505e-01 -6.207497264070956089e-02 8.721566603075509710e-03 7.130544742477081810e-01 -6.300859176000295214e-01 6.474460245801084701e-01 -4.140653558405379270e-02 1.043487117337567494e+00 -5.287116561713796070e-01 -7.793159170107897271e-01 -5.606117361862734960e-02 -3.832524836730852869e-01 1.377904816464638194e-01 -6.813644724690930410e-01 -3.569564634229242528e-01
3.630730415144473033e-01 -3.375646551456429889e-01 1.197087599194494173e-01 -2.123352174972295281e-01 -1.849820568169935342e-01 -5.924502737977574984e-01 -2.477136453764556268e-01 7.649623624939549948e-01 -4.199409776470771072e-01 3.711040301819908127e-02 -8.189619257937987840e-01 -4.994354290873865253e-03 -7.512458304971418865e-01 3.330853899514790717e-01 1.739869991829811613e-01 1.712467953941889942e-01 -8.795173773149269625e-01 -2.994512567180627749e-01 4.249637553570103088e-01 6.520905153997405002e-01 -2.344617413382375868e-03 4.520856627332916350e-02 -5.097860066492601039e-01 5.543270190489362446e-03 4.082384564332854904e-01 2.862460549265047338e-01 -2.894919578314135156e-01 6.683967425899804971e-01 1.001489665141731766e+00 -6.002123931798810513e-02 -6.049437114551007300e-01 -1.050185141886091023e+00 -4.137030428718471153e-01 9.415115086628675911e-01 -1.170563347267403326e-01 -5.447466497394208851e-01 -1.147264139952495071e-01 7.769786895360117907e-01 2.292000464827158579e-01 -2.677782473331539181e-01 1.078228966944314360e+00 1.257645198974663703e-01 -6.392835515055997342e-02 3.150762588488554838e-01 1.635059871574237877e-01 4.510862784963028116e-02 5.896930376586626554e-01 4.659687156014369891e-01 2.083235759041377200e-01 2.655295829891968773e-01 -9.337599920166872632e-04 -3.448462038975229627e-01 2.504164924509557077e-01 6.770147773234792554e-01 -1.335678967856010479e-01 2.633447215296753630e-01 2.318504032214458166e-01 -3.205313873348303866e-01 -3.211743293456977288e-01 3.892557559587784821e-01 -1.556384274165737158e-01 -1.312377368900701224e-01 -2.268188739667414133e-01 -1.036815105838915091e-01
-3.146306577901044482e-02 4.187603567004819505e-01 -8.579964147690639920e-02 1.568434257756616268e-01 4.482358547458197839e-01 2.183719905314438978e-02 4.218171480819566943e-01 -6.207882381925294846e-01 -2.612491627297534036e-01 3.094056357659991097e-01 -4.815219038748936309e-01 -1.281319621040985790e-01 9.622330274092019686e-02 -3.836169247944615224e-01 2.120033436030045737e-01 3.098699304442536495e-01 4.547095186416424961e-02 5.589472468803282496e-02 2.523105421278865057e-01 5.986980245406063883e-01 1.261915236500149584e-01 -7.184124771110897423e-02 2.857492214992161106e-01 -6.872820053432707188e-02 -3.327531469369400807e-01 4.656182990559592505e-01 8.170866069996626790e-02 -2.451353846585225260e-01 -8.717269283128902257e-01 -2.449908707432900679e-01 1.860870123768306184e-01 -4.104844374711023175e-02 1.479541479762608303e-01 -7.678143766122589309e-01 -5.408228079063409632e-01 1.894495865567873139e-01 4.625562056651613130e-01 3.460209807587689701e-01 2.523440714338396895e-01 5.993968138960221737e-01 -5.269775749021389510e-02 -4.380500142472290581e-01 1.999123093976615806e-01 2.985871954824270147e-01 -1.219591859216927060e-01 4.847243928934386048e-01 -3.590239993989325362e-01 -2.191189919035758660e-01 1.727746319113095952e-01 -6.866988805866059975e-01 -2.017641785300361701e-01 1.979361872212634377e-01 -7.089192922253022555e-01 -1.578002191666842691e-01 -5.048340824804863070e-02 -1.790555937951025522e-01 -2.420825187386374810e-01 -2.783038802971461029e-02 -7.776454286149936390e-02 2.801419204608202596e-01 3.109584556850923942e-01 3.735838686325150260e-01 7.406611235694772200e-01 -2.399086318435563470e-01
-6.079138824433644173e-02 -5.523663872331315838e-01 8.751523449128455201e-02 -3.417076812067627034e-01 -4.872057900537873909e-01 -4.627545098025959147e-02 1.777228470394161264e-01 5.365781796643769308e-01 3.625980505809039967e-01 3.737770492832583752e-02 1.166168160515154983e-01 9.610204224886236268e-01 1.252600999070658250e-01 2.218364805187639233e-02 6.036903143546921147e-01 -2.226123214988744159e-01 1.049870184152282004e-01 7.856818506075835540e-01 3.419064162492140846e-01 -3.306031791809886378e-01 -7.265142015647318985e-02 7.256648802086389238e-02 -2.852303081461878831e-01 -1.876080002709738792e-01 3.721961736865080916e-01 1.527827581385430011e-01 -5.380867574084806648e-01 1.638585218032205526e-01 -2.281540311764646348e-02 -2.184849511507862552e-01 -7.798220627217828937e-01 4.457095022332203949e-02 -8.360821004983020055e-01 -3.471361270756775919e-01 -1.875050640629078169e-01 3.955168706977886250e-01 3.302334976370329134e-01 -4.198870087200596846e-01 -1.791334468174249628e-01 -3.544596248503505409e-01 4.865612274858509556e-01 -5.686922994230736439e-01 2.454351849815988307e-01 2.276610206234099543e-01 -2.496180231318181619e-01 3.147668242778906555e-01 -8.287950326322156558e-01 1.444082339332023179e-01 1.898774569264268519e-01 -3.016317403056296143e-01 4.009758857074079419e-01 1.773273194670339781e-01 -2.567397404069285960e-01 1.223055839838416592e+00 5.602512862294313500e-02 -3.083681469036303469e-01 -2.148714264860352163e-01 2.624034715442839436e-02 -1.757713470383555909e-01 -1.181218808291650130e-02 -4.833225488189661911e-01 6.987134100332839104e-01 -7.277266441164870203e-02 8.246374736386924420e-02
7.534213286306061519e-02 3.820110775383350199e-01 6.816077605918696714e-02 1.308772620971455636e+00 1.870008038717673859e-03 -1.166603377038052947e-01 -5.095787877393650467e-01 2.351457518789825396e-01 1.233525348582557912e+00 -3.308469422510809110e-01 1.295586805784374462e+00 -7.154406746985318977e-01 2.091403499301185409e-01 -6.500352730340090979e-01 -1.966250557556104561e-01 -1.011261673996997068e-01 2.689996973381283407e-01 3.559831495294532577e-01 -2.294379839243187447e-01 5.586137035975557996e-01 5.266922668122824280e-01 1.265269016496659293e-01 -6.571784059655230159e-01 3.010090689979554868e-01 -6.472532160951333102e-01 -2.207810527068614082e-01 -8.110242135539430519e-01 -4.770921497961252977e-02 -6.451603066793677455e-01 -3.938044386882765258e-01 3.700327114417153451e-01 7.954063378692782793e-01 -6.452020816799827196e-01 1.624008706042696648e-01 1.375684375901309542e+00 4.741152259381912204e-01 3.867132916332615689e-01 -6.432223193446692244e-01 -6.933561280244980862e-01 -3.793763825607594509e-01 1.157586397071516560e+00 -2.023135859938612890e-01 7.673283059670324424e-02 2.006234096844658477e-01 5.769480468602736778e-01 -9.552540655612277165e-01 7.522528679731926848e-01 -1.611009725707954476e-01 6.636384081343501551e-01 1.388747769419437506e-01 1.417305670481841418e+00 -5.205933628067769409e-02 4.489056261260208069e-01 -1.004120490295271395e+00 -6.901067070426023520e-01 5.596193459751802601e-01 8.871355933471027078e-02 9.440246907462496173e-02 -1.209682428524422731e-01 2.773041875184080185e-01 2.023257736472803270e-01 6.315277180146764424e-01 -7.305080429332999614e-01 -1.189616030590316537e-01
-1.397238106660417430e-02 2.691337685600147633e+00 -2.497004976830313083e+00 2.346575881486199222e+00 -6.168340911098523227e-01 7.477985928576397212e-01 -4.259508073919199278e-01 4.627796667671393860e-01 1.440154973924653858e-01 -1.034176913012885057e+00 -8.908519395294024756e-02 4.208271020297530418e-01 -5.052602800571955877e-01 2.875353022631923938e+00 1.161204820923566611e-01 -1.717125097199057704e+00 1.983750963426838654e+00 2.839266716681256297e-01 2.079627128024265914e-01 -1.969109495498064591e-02 7.395742376001822604e-01 -8.472375149518176496e-01 -6.309533213158334819e-01 -3.908939930491660553e-01 -1.862475948423326366e-01 -1.948805871488835439e+00 -5.268518290705918039e-01 2.647863534067032010e+00 3.806601920261507566e-01 -2.612772892624682930e-01 -2.406416648991604124e+00 -2.674762729683531903e-01 1.817561881150612457e+00 4.289237663566249081e-02 -5.784645930689844701e-02 -1.662290605916883213e-01 1.401910668617543321e+00 -4.660892266170147957e-01 -5.914455378926767315e-01 -8.687841640472312443e-01 6.903767390759308897e-01 -1.378392522559287015e+00 -2.525750981969173470e+00 1.626554214362420500e-03 5.019825183799938584e-01 9.009530570344961853e-02 5.848638664382038721e-01 -2.030535054151983154e-01 2.000915723994118878e-01 -2.299924102096264356e-01 -1.155054293171119961e-01 -1.857924746081204836e-02 -1.412051317402470030e+00 5.966023945241523130e-01 -9.588000126875019236e-01 5.272853707710242060e-02 4.216370475968599374e-01 -1.180356324090536813e-01 -2.339393177502783194e-01 -5.056613616590619475e-01 3.395453724406378299e-02 1.092624745692169080e-01 -2.258089285878495667e-01 3.394090981673445473e-01
-1.778134619944752859e-01 1.169165488178075807e-01 -7.951427716717950067e-02 2.225313713606507093e-01 5.447682191884110209e-02 -1.331303515786727565e-01 -6.523938998705594572e-02 -5.926975276238616308e-01 -9.058054105214666252e-03 2.738462876492345210e-02 -4.607892474839282303e-04 1.115925604688785822e-01 7.488223085935813428e-02 1.214175691187508732e-01 2.757777900031736437e-02 -1.036663448118337327e-01 -6.568381186597749277e-01 1.209458495283138452e-01 -7.794470042899503959e-02 -7.001411803573814180e-03 -6.750837059810060881e-02 2.054645820675599366e-01 2.961255393888849452e-02 -2.906629638573982391e-02 -1.019936429939523048e-01 -8.934233574278957479e-02 9.282279489779539372e-02 1.298078581211290217e-01 7.598508341631124985e-01 -2.782520833856981235e-01 -5.851927314049639589e-02 1.340265378645167293e-03 2.725151944724815700e-01 -1.045681065806904758e-01 -1.403617918118985237e-02 -2.725928377449424733e-01 1.368092477513008220e-01 3.711884778749480196e-02 -3.443800443538196088e-02 -1.185016415021550307e-01 8.134646659181751782e-02 -2.103059377987291645e-01 -1.277429864395316639e-01 8.503520314727835983e-02 1.964522246218116663e-01 -5.270203609028934616e-02 -7.636131110933139232e-02 -9.072848166935670866e-02 1.703286934615627635e-01 -8.402404067050080194e-02 -5.241654124903700335e-04 -1.415512424229539018e-02 -1.774823997375983564e-01 2.200794724450364642e-02 -5.195019571054558527e-02 -1.478720028456232023e-02 2.455174982853018939e-01 -1.141184811288689822e-03 -2.071556610643317253e-01 2.445737305039567544e-01 1.361714482433957485e-01 -2.336498433248178352e-01 1.722412800701161872e-01 1.615435830613720994e-02
-6.797483823573953199e-01 -4.608865494992325784e-02 -4.478371660687092276e-02 3.814404913728889346e-01 3.456796450495711603e-01 2.414069639818252067e-01 6.943168395728482878e-01 -2.933249988341569137e-01 -2.021030122309647181e-01 -3.457117494019981141e-01 -1.370626473821724353e-02 -2.950442524919877907e-01 3.314298099022334188e-01 -2.564522142494286006e-01 -3.069706240338704317e-01 -1.011803963592547567e-01 6.285311985109730548e-01 -9.803980177937536844e-01 -5.101856475517515532e-01 7.566538623601475055e-02 1.716286096103738779e-01 5.199121050311485137e-02 -8.549224326562767651e-01 -6.547490703700648007e-02 2.092556277922607844e-01 1.940100063982770282e-02 6.254773578273501444e-01 -5.634905134528516574e-02 1.469484229548002341e-01 1.623707240627364767e-01 -3.378010055555523417e-02 -1.189792595901280753e-01 -3.339085545465877436e-01 -2.847014494163172538e-01 -3.823268681891483500e-01 1.995984696520199941e-01 5.990889580031036887e-01 1.427601622336683307e-01 -5.467847887094418047e-01 4.681328090999343772e-01 -3.240469336042599985e-02 2.557550246389025395e-01 -7.159520254516597848e-02 -3.973726832881254167e-01 6.182679940071428293e-02 2.167279424385121223e-01 1.254511154767497194e+00 9.710205138503487377e-02 2.708111048185776748e-01 -2.071448936227857640e-01 -7.200108895242184059e-02 2.732868487907898492e-01 -4.196331557539387247e-02 5.726138309488784106e-01 -1.322875795409765576e-01 -3.971105947209425668e-01 -6.440741278875531384e-01 8.672064608471506675e-02 3.568648024409967201e-01 4.069705608416950005e-02 -6.574166879834805743e-02 4.035403147068965524e-01 -3.599191191104946230e-01 -9.445058129960787197e-02
-2.929289901632137760e-01 -4.348398843956883392e-02 -3.923468981902299970e-04 8.133520406295473293e-02 -6.009914130618451700e-02 -2.068804979710209269e-02 1.261556283099992126e-01 1.485139882504754871e-01 8.116873160929067854e-01 3.784613050184850169e-01 1.920368025351887331e-01 -5.811136918290602527e-01 2.322483735658019410e-01 9.080930616762789009e-01 -2.885945464527008841e-01 -3.910879961001055838e-01 -1.511946557325492824e-01 5.668768361279497014e-01 3.172960651615117089e-01 -1.791957284008446061e-01 -1.057118007563911666e-01 5.610676175613920069e-01 1.622456828774352933e-01 1.139560032785209787e+00 5.722366513494442364e-01 9.850953646732230062e-02 2.261459384409142959e-01 -5.803137751495573982e-03 -4.082769760884249338e-02 -7.563377371688059791e-02 2.169856741616163209e-01 -3.398539897113099784e-01 -2.643655863768033520e-01 -8.482867408392844033e-02 2.251518893566479551e-01 -1.604887458331861749e-01 3.493782523715236593e-02 -1.485415718942233003e-02 7.983396867797204477e-01 -5.460955551543573705e-01 7.672956532384054285e-01 2.205687748220887257e-01 1.338209355663038704e-02 2.294852846442647920e-01 2.604884634625371786e-01 -1.934527328248892564e-01 3.023780649847273017e-01 1.372586653601628459e-01 2.595629008112643188e-01 1.940056587101784413e-01 -9.091123427998259662e-04 1.812280872509762775e-01 -2.376495342336259753e-01 2.435008477666643634e-01 1.038476067465143871e-01 7.303958749757958335e-01 -3.266974802476150241e-01 -2.464184077613640333e-01 1.600843661156101660e-01 -6.693218325162403337e-02 -1.018677682204806478e+00 -2.375114157739821250e-02 -5.078216696753193871e-01 1.859870379249370376e-02
-5.880891034308937115e-01 -2.609604466611096241e-01 -1.364055226973326096e-01 -4.456653411718528579e-01 -3.894404085460660414e-01 -1.207553457184661477e-01 1.640273177707637919e-01 7.750979925513451496e-01 -1.501168610675574777e-01 -8.069813277962420983e-01 3.648324508987510484e-01 -8.923724764423596190e-01 3.791745634595548031e-01 2.720228532796077903e-01 4.719826386453527811e-01 2.528444623478848241e-01 -4.825361029520294776e-01 -4.717510622924954711e-01 1.336119152663390597e-01 7.256634858823854395e-02 2.487262825184182735e-01 -1.358948882220581411e-01 -2.875104464571520690e-01 -4.983034352315849347e-01 4.528904837480505208e-01 -2.946915145443494422e-01 -2.589108242339305949e-02 -5.298839835201496484e-02 5.817571893933557586e-02 -5.622701654991612008e-01 5.462615350972369610e-01 -6.773249398939056309e-01 3.796435176140718903e-01 -1.120303396584881733e-01 2.189709735795770662e-01 3.175280523165899260e-01 -3.086481644632100285e-01 -6.042666390524474851e-01 -1.461122653249908865e-01 -8.413045645112600113e-01 6.243132195611297286e-01 4.359380733269892505e-01 -3.888279223827372649e-02 -1.727059551674266225e-01 4.665637175818430071e-01 -5.077689459824980683e-02 5.413715067225892685e-01 3.564019046604593455e-01 -1.204246858027010203e-01 -5.589772292346684157e-01 -4.071595794520372902e-01 1.935139186729746552e-01 3.511764585063733013e-01 -2.698039183258058582e-01 -2.429384112179074906e-01 -9.190829122154471620e-02 -2.939202526781904967e-01 4.616553520973213920e-01 -5.671974681997781209e-01 -4.692896978150785658e-01 1.999751098056560539e-01 -1.440445867231731347e-01 -9.924211948641092906e-02 2.130887594309165689e-01
1.412063434932787354e-01 -1.001475241380719167e-01 8.227105716998391050e-02 2.464488460415129589e-01 -3.387270067194077527e-01 -5.212206037582238771e-01 -5.599257855842979525e-01 -5.709851791791046294e-01 -4.819920222099828566e-02 -2.818712470061118247e-01 -3.417289770025608298e-01 6.881516940499474155e-02 -9.788882352236792650e-02 -1.930142173092772584e-01 1.150058166770524387e-01 -2.337413747448789936e-01 -3.517372170547835575e-01 7.278382974823821572e-01 2.040131025670122722e-01 -2.005192003165239267e-01 1.747100523336260203e-01 -2.535753517097694698e-01 2.269293425648069851e-01 2.029599474169581710e-02 -1.796307323999723760e-01 -4.700905084068914275e-01 5.126049089546772519e-01 1.387328432348140517e-01 -1.496308191619787412e-02 9.991286228104478973e-02 7.866107150928897118e-02 -5.337863619114654457e-01 8.994816343959105565e-02 8.435790524767680099e-01 2.725500303979198624e-01 -1.249867466780261310e-02 -7.092963068299436014e-01 2.965876399521955031e-01 1.368924371403218432e-01 -1.954371661583678144e-01 5.056731039057904553e-01 -6.152345813597842605e-01 7.308813762892817090e-02 -1.851231748001195554e-01 -8.105843789256698129e-01 -5.320114206374760846e-01 -6.064591273455753884e-01 1.817625350313706589e-01 -1.415647394211862753e-01 7.446144610029971078e-01 6.328850824124848673e-02 -4.123115104335386416e-01 -1.250618936376991508e-01 -6.486092367031991157e-02 5.727515858653181580e-01 2.827724372600340375e-01 9.685738378174651997e-01 -3.112478163459942437e-01 -3.534255740297067017e-01 -3.701525828188510503e-01 -5.620362899750362218e-05 -1.187657812906004889e-01 2.400366861537211460e-01 5.050372162702037038e-01

W2: 1.533001677343161784e-01 2.909426694611912390e-01 1.041253303232160393e-01 3.319543113328088935e-01 -1.406300913442762313e-01 8.316743652304355028e-02 1.029319259142714993e-01 -2.212213992427006226e-01 6.554791079908757478e-02 7.684904411738649466e-04 2.670886745803884854e-01 1.580610432941726151e-01 6.185858502496637268e-01 1.518676965916569352e-02 5.259706259452655297e-02 2.176759309972791656e-01 -2.009952275830438895e-01 2.178032635871983147e-01 1.943156821340610296e-01 7.031118442681473513e-02 -1.669551746096919198e-01 -2.447845171681354570e-01 2.523754306961508709e-01 3.822994043165477973e-01 3.966093853958397308e-01 -2.306612072381173661e-01 4.068044032789390821e-03 6.847150533185082655e-02 -2.457620246786744733e-01 1.006200525185220185e-01 3.597902936809357355e-01 4.270213336183815156e-01 2.081585749454322731e-01 2.861618494922012479e-01 2.445195264174728489e-01 1.271514791930516142e-01 1.015462576134234796e-01 1.617367756685050492e-02 8.516453387200441372e-02 6.100954666828127537e-02 -6.297175618967461828e-03 2.605506497977975733e-01 5.311890483258195628e-02 -7.652712815097147125e-02 2.492529368668873826e-02 -8.611747969672157998e-03 -2.243675284052446817e-01 3.934295326965453476e-02
-2.130320643958326376e-01 2.760067145092505725e-01 -1.644747735923291210e-01 -6.034021318002683598e-01 3.402286094249969417e-01 -3.559798438582084668e-01 -3.742425749073299834e-01 9.483082332980421469e-01 -4.551874321000915491e-01 -2.723083843742563626e-01 -2.414979634688149135e-01 -4.081453169023178673e-01 -4.576911753888641965e-02 -2.105411087350307076e-01 4.977806818206531592e-01 9.356457363710303510e-02 -1.161176995348786600e-01 -6.910772395505857535e-01 1.696810167786758916e-01 -3.063094907533996936e-01 -4.217121881420278773e-01 6.323501097165185048e-01 -3.181438938980142295e-01 -4.372164831952303765e-01 -3.497556198765220947e-01 1.219124935815843469e-01 8.980001822884392526e-01 -1.078883773352187631e-01 -4.454591236158214063e-01 -9.389834918104201719e-03 -1.522263506178649431e-02 -5.635447874432145676e-01 -2.847319227941673137e-01 -4.290053748116117727e-01 -6.119488256998787401e-01 -4.899324951825321239e-01 -5.380220290566536390e-01 -3.406127116628051010e-01 -4.889875833904639424e-01 -1.177905551560931574e-01 -1.812489058523125696e-01 -3.282060648384708679e-01 -2.574183982953112126e-01 -3.955057032591245414e-01 -7.198780258014007005e-01 -1.491047338277749768e-01 -5.428170184033271894e-01 8.538759131674237279e-01
-1.105869468495085828e+00 -1.680085253841405279e+00 -1.491058386943490133e+00 -1.098090187689244823e+00 -4.893546262806508507e-01 -9.114954998346083137e-01 6.896517718316439449e-01 -4.407760204871339349e-01 -1.084024072488142698e+00 -1.102287315708070370e+00 -1.848887650276590522e+00 -1.161533477325114694e+00 -5.939489350349125285e-01 -8.018216792990979780e-01 1.118938715782681781e+00 -1.307036064425454835e+00 -1.064328647024866292e+00 -9.012403415606834445e-01 -1.313290464204601049e+00 -1.201217332153227346e+00 -1.107351448636228586e+00 1.157865598980730271e+00 -8.513378989167895705e-01 -9.651309500272171604e-01 -1.243233905478369206e+00 1.147633359489926175e+00 8.440100758760977762e-01 -1.251100236190272552e+00 -1.072781413434862996e+00 -9.621989479224560826e-01 9.997300455655846463e-01 -1.162476552007426278e+00 -1.023255428200130046e+00 -9.111891183592228938e-01 -1.034164912876945674e+00 -9.082351715980381268e-01 -1.179805692262300365e+00 -1.102693626492905477e+00 -1.037241098257040139e+00 -1.140593453086055087e+00 -1.671640427971444964e+00 -1.668158784176461795e+00 -8.932583542298455637e-01 -9.737748946958828533e-01 -1.093683716581186793e+00 -1.324832867330187458e+00 -1.118658068384018156e+00 8.763364192996423441e-01
-3.767920915800964665e-01 -3.396474526779701408e-01 -3.159696948229782087e-01 1.505937903389103216e-01 -3.715450596443319736e-02 -1.252581779378518501e-01 -7.066913700606332338e-02 3.029082369227881766e-01 -2.955751779777746613e-01 -4.486376060623856188e-01 -5.374700102236190657e-01 -2.783097801718064646e-01 -4.383736047349338083e-01 -1.937853305285057171e-01 2.989060211826389257e-01 -2.956239912165081751e-01 -1.366682583983031829e-01 -2.274434421591798872e-01 -2.910352138608430783e-01 -3.305330431941014280e-01 -2.331883890204686227e-01 3.505026629565797247e-01 -2.564745246301142756e-01 1.253691801800127514e-01 -1.617073473647317461e-01 -4.772325937004803786e-01 6.488431879980540717e-01 -1.794731581723500169e-01 -3.986939752891582867e-01 -4.427497180384871722e-01 4.635145066735439356e-01 -3.793347565848470548e-01 -2.480583269292343240e-01 -2.471858956506717275e-01 -8.870250114883200532e-02 -2.766293680170709424e-01 -2.021774740218444111e-01 -1.588971044108250796e-01 1.893086327554424908e-01 -3.825810764970082878e-01 -1.751650430240762335e-01 6.715573764969245962e-02 3.202103751565086448e-02 -3.973081094773477373e-01 -1.698124568876242524e-01 -2.641476558948205322e-01 -3.819979793880696750e-01 2.192208674183814335e-02
7.633349423641529186e-02 9.888400635464002220e-02 2.149350546889989000e-01 4.652693709316838705e-02 1.028914719027181623e-01 9.676915366077502856e-02 7.946707861138031792e-02 -4.296028493756503391e-02 2.079521162075996243e-01 1.943282444251642205e-01 -2.098931567102354026e-02 1.544891446479292885e-01 1.415586221203076478e-01 7.313119630968440976e-01 3.288667059947612548e-01 5.544313751054554817e-01 3.693304343724388428e-01 9.342612877878644917e-02 2.847154206988839475e-01 1.159882789621256710e-01 -1.737012407368485334e-01 5.609706832514842548e-03 2.440860100025818991e-01 -1.638893424025267553e-01 1.899089426880319897e-01 -2.790676278974346114e-01 3.079148184211324968e-01 7.017086540785380522e-02 4.446312086475947556e-01 2.403238005307996028e-01 -1.310943790638552375e-01 3.972875525607533209e-01 2.839877152115660025e-02 -4.730709533760167618e-02 -1.053077848117604451e-02 1.157719181274907971e-01 3.211493125913327806e-01 -6.928750669136005125e-02 -1.652403448324039625e-01 -7.344915701736280667e-02 3.397457598667153467e-01 5.452521265578346155e-01 2.861077458422014302e-02 9.571404468930425069e-02 3.553522528332443697e-02 1.422497975180544161e-01 2.649043976168970471e-01 1.110875066726202121e-01
-2.052421783699871494e-01 -3.623586554090763578e-01 1.235063295603546288e-02 -1.530972977126377754e-01 1.673062381363402407e-01 -3.627188267416281420e-01 -3.831834941692576768e-01 4.419085069700542379e-01 -1.592909514050293296e-01 -2.268230493155246053e-01 -4.498074543615251386e-01 -4.364595760181632644e-01 3.142955137644395380e-01 2.003960926549075428e-01 3.613667658430575469e-01 2.217916941730065650e-01 1.437053481836031259e-02 -1.001112241112741691e-01 7.039504175732080871e-02 -4.374662683158292986e-01 -7.126677000979575460e-01 4.674682185564346115e-01 -1.313852276195896784e-01 -4.202673231661253617e-01 8.579439715331411975e-02 3.698192977702610684e-01 3.886010494753796563e-01 1.724725609877144628e-01 -1.922192085295230390e-01 -2.910191504181755540e-01 8.120271675222227870e-02 3.309952818924320750e-02 -1.830730943891633877e-01 1.034133055397053712e-03 1.167260642556382233e-01 -4.651488642017745923e-01 -3.889876075325065380e-02 2.073898326512776391e-01 -3.001761199543049319e-01 -2.376152950037294098e-01 -1.045350383468867939e-01 -1.816358608113373130e-01 -1.751871891692313998e-01 -1.112614442958777955e-01 -4.792174583334886107e-01 2.552167547866101005e-01 -3.144149637747182258e-01 3.929239639766974324e-01
1.776999279830074052e-01 1.437117660525823459e-01 1.921414968754535102e-01 1.209391122839605509e-01 -1.155895542411497362e-01 3.825840438587889691e-01 6.787211525367534692e-01 -2.426041822272388959e-01 1.241837035351636559e-01 -2.297229684436078150e-03 4.077034650548678751e-01 2.556613813803523816e-01 4.686488875844933566e-01 -1.094586685503874807e-01 6.196887471918480217e-02 2.097486543913654466e-01 2.669660649785109974e-01 1.273189391319639874e-01 1.239529891852108046e-01 2.831584976668967690e-01 3.945714202111978985e-01 -3.574756600797858730e-01 2.150348675797970344e-01 1.633515386116146106e-01 3.037319056113365057e-01 4.024476211062184561e-01 4.772697143028328121e-02 2.708296689963607395e-01 1.958684175273142647e-01 1.798947674649314932e-01 1.737891554825440887e-01 6.640280214014956384e-01 7.960217746791237170e-02 -2.165820492937352987e-02 2.868503817499072281e-02 3.354444762740287078e-02 1.653929651648870514e-01 3.571668518053250918e-01 4.276379694932573305e-01 2.678907576438921412e-01 -7.945279241087668809e-02 1.195546963324663342e-01 -3.366690617738598429e-02 6.278855815431907961e-02 1.083654860884312038e-01 2.727355604928545230e-01 1.926223251586852564e-02 3.273149660391107552e-01
1.220732623892373525e-01 -7.682724749027966538e-02 2.744207563904865754e-01 2.606647323856601250e-01 -1.238751466176001986e-01 6.097161729023082427e-02 5.775943917213132578e-02 1.247501233137491769e-02 2.151170210645872993e-01 3.962187334459724708e-01 2.471150132017111700e-01 1.586533613984885127e-01 3.138488581878449146e-01 -4.274955186831544962e-01 3.425359141324683110e-01 -5.157793820238542465e-02 2.490141277128624375e-01 1.040829198358840801e-01 3.318061049626336301e-01 1.761702114052850904e-02 1.999026981768682876e-01 6.931800014309261182e-02 -1.554130591700389197e-01 3.142085101215231213e-01 3.566350574899818104e-03 -2.134526100732090925e-01 -1.923663306121866090e-01 6.317961516118958398e-01 1.030062723901028904e-01 1.520535170887699905e-01 -3.578228519979945871e-02 4.270057085046854994e-01 -3.056233107249525099e-02 -3.268107295980409721e-01 6.068781306736027448e-01 -3.212199017321732547e-02 3.074956529253196069e-01 1.516926176772394157e-02 2.644196949488858417e-01 2.152603090700966615e-01 8.792850866084389594e-02 2.670480109121541878e-01 -1.358918286886532656e-01 1.748204900645869975e-01 2.542171057599360573e-01 2.765032801779160332e-01 1.879100709150037518e-02 1.792670209396120817e-01
4.552879746982102516e-01 2.403492025547618316e-01 3.615273655762370475e-01 3.019302646962717107e-01 -4.488814203291547900e-01 6.415704294730222301e-01 -3.432205504274170593e-01 -8.516696095953008028e-01 4.372568221974447722e-01 9.750814900364440652e-01 8.252072389072664382e-01 5.648098440934061770e-01 6.442028353782427441e-01 3.057474828377897413e-01 3.305954482527339103e-03 2.274997493637400392e-01 3.343278916642812293e-01 5.360116089810748052e-01 7.841675891897262884e-01 6.671185522964416803e-01 4.685866687666870312e-01 2.457367477991139471e-01 2.980659713142738698e-01 6.494026700407965480e-01 3.645039575026221557e-01 -3.107377678073304783e-01 -3.865793454611275437e-01 5.215240288416655989e-01 1.208643276150771773e-01 5.649877686237656516e-01 8.438593965610262371e-02 6.209897371106053443e-01 8.377768518551726995e-01 5.313485249032692259e-01 5.309895420073614813e-01 5.111824920395647842e-01 2.652859501779386009e-01 4.721245625018564707e-01 5.544780205417865204e-01 4.503456305381837166e-01 3.461237377750623900e-01 5.680668860918094420e-01 5.450053995547732288e-01 3.901874055021694598e-01 4.677938122114959629e-01 5.216740917051019277e-01 3.671874608917586325e-01 -3.004891787136898182e-02
4.879965697505378452e-01 -3.310969855743899348e-01 2.795047074253211306e-01 9.629195912731142171e-02 -3.776377306361637931e-01 3.022426425629191615e-01 -1.112910856968672563e-01 -9.296945396567046771e-01 3.146428496819505538e-01 5.071997685586047133e-01 5.666605249218137352e-01 1.621138691878522553e-01 4.414637016266457215e-01 -3.970371569288033142e-01 -2.115069383864024433e-01 9.543933205954110641e-03 1.647380599317295191e-01 4.663909855670937410e-01 2.036122594433007749e-01 2.686251567517746741e-01 5.216402486084910084e-01 6.091443844719165307e-02 4.472964746585131324e-01 1.147191280853223916e-01 1.890174287620758342e-01 4.322722450374646280e-02 3.751064670856902455e-02 1.231615409665338390e-01 1.748067522091275028e-01 3.984394666484675912e-02 3.942107399519661493e-01 3.650549969652229221e-01 2.645030808456670379e-01 -2.572285809793289912e-01 -1.114628409694854161e-01 5.388921383884688332e-01 1.135734312837951981e-01 1.582786936790076537e-01 4.884677404464651818e-01 2.257547010703097878e-01 3.822226594431391011e-02 9.483825079064311936e-02 3.063622031357841613e-01 -3.900871494654604282e-02 5.277526959247571536e-01 9.935374004253917646e-02 1.488499765466056168e-01 1.603725053310308957e-01
2.228501698925098584e-01 4.093269043906959115e-01 2.370706842242204238e-01 2.781028161669470145e-02 -2.306044154022405812e-01 5.834808204628045836e-01 1.053950926312304491e-02 -1.335437334461243852e-01 2.417257297681278394e-01 4.140074790784845638e-01 1.364898530162420298e-01 3.280443220232791002e-01 -7.756189911792513159e-02 8.501600978330840774e-02 -3.759939539711960044e-01 3.196546773827517174e-01 3.720260352607385745e-01 1.887665322370724041e-01 4.667535582757247337e-01 4.067598599938393455e-01 3.701894043079046459e-01 8.370943983898228302e-02 4.405656431248320959e-01 5.303195277702306143e-01 1.792148427582874459e-01 -6.423566715955784101e-01 4.119479071687708743e-02 -1.077995887116233453e-01 -2.437325822335169589e-01 2.555955375827163173e-02 1.372661981846600709e-01 3.362273105228087422e-01 3.492428153781504396e-01 3.004668299831925737e-01 5.717471145271133537e-01 5.809102676152971823e-01 5.465942696269883161e-01 -1.112141427386230536e-01 3.000966104139009549e-01 1.371376934879567633e-01 3.708711256103738862e-01 1.883395062586890600e-01 2.903651261765582969e-01 3.296933606208058976e-01 3.549153631823740995e-01 1.375195270280139270e-01 -1.093696205381466946e-02 -3.064091847747804631e-01
-4.109023049805201055e-01 1.391323202707946405e-01 -2.247580096018587104e-01 -2.889918463229018686e-01 3.265002285523446179e-01 -2.934294010545637210e-01 8.411540137463152655e-02 3.637036209245934626e-01 -8.045029417315899267e-02 -1.896002989534714411e-01 -2.599605306418095729e-01 -1.984565939847505733e-01 1.299145865556058932e-01 -1.019900861766170230e+00 -3.491523770643209512e-02 -5.221552882533520012e-01 -4.616077250340204843e-03 -5.364413611234656321e-01 -4.408852757081163642e-01 -1.417202273834881066e-01 -2.931515045902373662e-01 4.721277537672889935e-01 -4.552857959434200574e-01 -4.155454770861064517e-01 3.639429834150716830e-02 3.402157177409209088e-01 3.886757224177661008e-01 9.564864733553704590e-02 2.025342295459961039e-03 -5.734026607849137536e-01 2.944531230724171111e-01 3.461020381690854131e-01 -2.320598220664865374e-01 -2.145643974414712940e-01 1.936824575770289825e-01 -2.876716319754438200e-01 -2.587466607532436583e-02 -2.026632394799578185e-01 -4.841135392732897058e-01 -8.450534786908694973e-02 -4.621855818730284393e-01 1.540399934988376518e-01 -1.224172647012930382e+00 -4.033406948001135861e-01 -5.217674109073190403e-01 -1.287193206596921879e-01 3.059207139155144944e-02 1.113186357855376896e-01
2.561027752151506104e-02 1.250102724747321169e-02 -1.073961640975332199e-01 4.885947868380712683e-02 -8.951427923992753832e-02 -8.320612425333202833e-02 6.407038228399065671e-01 4.604984689625265387e-02 6.119754104011097123e-02 -1.079727700348334235e-01 -1.940501762632139138e-01 1.508401791025554828e-01 -2.323256877695395184e-01 -8.304961994587907459e-02 -2.775903814500711372e-02 -7.096412178626861911e-01 -4.909019001005222038e-01 -2.318467449753612852e-01 -1.495833313114139362e-01 -4.378319928660478577e-04 -1.022205281978526420e-01 -7.461966412390035053e-02 -1.922101022724485020e-01 -2.288121812754534412e-01 7.794028725233214348e-03 9.032780801345277055e-01 1.481512364882144883e-01 -1.938854022107125430e-01 1.615009916152224667e-01 -2.177512936253895304e-01 2.032318247687486257e-01 -5.360830685114915256e-02 5.109636953774402551e-02 6.117766348152037237e-01 -1.155875988211879229e-01 -1.699111282277117885e-01 5.367254282278426450e-03 -1.184421272295901051e-01 4.586052281167444372e-02 -1.307103896077504990e-01 -6.363757024167906442e-04 6.719173749188606104e-02 -2.207900118272629886e-01 -3.858557801369721929e-01 6.323943545764151297e-01 -2.091288920606973467e-01 2.743824252472429684e-02 1.715002309094995347e-01
-3.437974682467028198e-01 -2.292477728125215664e-01 -4.979464763461020071e-01 -4.412081809468196836e-01 -2.307486098692688448e-01 -1.715212585324516481e-01 -1.638052499467685386e-01 1.035465472304822443e+00 -4.648786383808000133e-01 -5.519583413981980075e-02 4.463332585011427212e-02 -3.234666046427682740e-01 -5.391428813902904293e-01 -2.227658461654781485e-01 6.905895219116360284e-01 1.240512926569558583e-01 -3.244768819700671880e-01 -6.706299884789345134e-01 2.779200243803611192e-01 -5.979852625149311568e-02 -1.135853357580371842e-01 4.313781467875397735e-01 -3.628547106455668469e-01 -3.716708805507659696e-01 -4.254597170343984436e-01 -5.865988447136526451e-01 7.201712600090744987e-01 -3.328395436754962855e-01 -1.720273798509637866e-02 -2.126210617105642187e-01 1.034377180597631923e-01 6.377664952384211328e-02 -3.015936708031091151e-01 -2.781652087124761308e-01 -8.044919936993537302e-02 -6.982875011136317756e-02 -5.970766598939755143e-01 -4.212296294594585766e-01 -4.727143737349872032e-01 -2.555005182761269089e-01 -9.265386536637834625e-02 -3.288176805570448002e-01 7.673927763831189797e-02 -4.626390163523529386e-01 -2.506387058974514637e-01 -3.941017445196107194e-01 -4.193780961079930369e-01 5.278902430655746381e-01
-7.757265181860253933e-02 3.067032718578752148e-01 2.747524711188201532e-02 3.090698065553245111e-01 -4.338966349071429751e-01 2.164674061502300517e-01 1.301642116631163970e-01 -1.854199077713776234e-01 1.488483429123527990e-01 -2.795066156813363900e-02 3.641442995315991027e-01 2.862983409444493921e-01 -2.225617750071888779e-01 4.409673939427047329e-01 4.970512397503827617e-02 4.616092845297335434e-01 2.651168230624851851e-01 -1.768963208285933841e-01 2.390379540784405288e-01 -5.968647834670454816e-02 2.305216056584862561e-01 -3.738739056863343291e-01 2.574345802256986504e-01 -6.894643568563442459e-02 2.750283320205659798e-01 1.438572488235783653e-01 4.652283904560679251e-02 2.848709168595463942e-02 1.295469547780035979e-01 5.316924697314915349e-01 -3.070000509722281556e-01 4.297508526092624903e-01 4.676958459587560735e-01 1.894159546679485273e-01 4.621797359265094052e-01 4.343888805664055663e-01 5.272185031805950439e-01 1.058059909981197422e-02 2.150889414838550451e-01 4.356889915183227435e-01 1.129245873301891190e-01 3.314925209100479941e-01 3.901850794688246915e-02 -2.138009300821303860e-01 1.693366877725198116e-01 6.445822165739711895e-01 1.996442736277909968e-01 -3.510137027469402149e-01
-5.680778193735875892e-01 -5.188739914485175353e-01 -3.017568291798190527e-01 -4.343644338727764564e-01 5.557770404302666556e-01 -1.227688977675928106e-01 -8.214341525182924930e-02 1.325788435962126088e-01 -4.505242504725199826e-01 -2.677038816305634117e-01 -4.788675595240490801e-01 -5.922839286906098621e-01 -3.916770780750652436e-01 1.977417544019065970e-02 4.685548337988436618e-01 -6.812239902866359387e-01 -3.145559281700675142e-02 -2.122573967784267546e-01 -3.042126297210176467e-01 -3.437266414258347003e-01 -3.892384738671970656e-01 4.836653851104779633e-01 -3.833315525640145216e-01 -5.465154911983608477e-01 -5.394972317096508041e-01 5.628089947374452784e-01 4.615113795483318238e-01 -1.962478671142612041e-01 -2.546613407871982648e-01 -2.107691018307480957e-01 2.266466896193793656e-01 -1.683780091103866394e-01 -1.304391942768729218e-01 -5.120520761369037332e-01 -4.252609266972269819e-01 -1.733396193878373737e-01 -9.459180696487706763e-02 -3.726026816032630973e-01 -3.488631666764344108e-01 -3.227103151481957033e-01 -3.522808514094527554e-01 -1.769561191385116694e-01 -1.593402137561399923e-01 -5.369169922714536192e-01 -5.446449216600901533e-01 -7.522951874435829245e-02 -1.669570227254837946e-01 3.290721901925151571e-01
-4.630313953976054192e-02 -1.645945366118225367e-02 -1.665185918467721737e-01 8.931480736426120060e-02 4.490614884076082891e-01 5.700381552498709481e-02 8.760556706697113227e-02 5.727845005983771554e-01 -1.774811256564420847e-01 1.492738883106407288e-01 -7.369037586825460950e-02 -3.416517765167357279e-01 -2.305500451531224820e-02 1.481685095947623543e-01 1.034779428133256879e-01 1.849713641085080074e-01 2.563486147562773487e-01 -3.490439646801505869e-01 9.597773663497241939e-03 -7.005793946190668094e-03 -2.923621551191373236e-01 2.358873801922331537e-01 -3.555237747782507424e-02 -3.040195348624570859e-01 -8.332540039532647380e-02 2.955371340433206664e-02 5.372763670211174736e-01 3.751465032110144482e-01 -1.603360507720325290e-01 -4.589867911040051290e-02 -8.714167184880928368e-03 1.424678675111314408e-01 -2.537689963566340245e-01 -2.394911028691450172e-01 -7.384940062078033940e-02 -4.725813371823397308e-02 -1.597393146647934914e-01 -1.792983224003978915e-01 -1.935981794310108473e-02 -3.356920788150208942e-03 -2.357042896123990317e-01 -9.753801846022090716e-02 1.268640307517812996e-02 -7.582017671781271506e-02 2.368530436834467567e-01 -8.226699640412257764e-02 3.948191619903498178e-02 4.429568320140909177e-01
-8.373150673395683696e-02 2.348047127192661732e-01 1.920926706183904709e-01 1.322549318462077628e-01 5.520913038402888717e-02 1.545741438650165833e-01 3.018233443491299961e-01 2.962696310103598574e-01 4.926445125449742390e-02 1.309353792956853904e-02 1.947528962703130861e-01 2.380891894113868271e-02 4.619923522123821347e-02 -4.530060163069945384e-02 1.308088415395063098e-01 4.721616748272972619e-01 5.979134784269038994e-01 3.945131479241246741e-01 1.884449851444877644e-01 1.712425952636209281e-01 1.244776432387501991e-01 4.713138512933139346e-01 4.505414245474054225e-01 3.118129992474833467e-01 8.282805233238434151e-02 -3.424840224628780128e-01 -2.192482912491024172e-02 3.937817971375775494e-01 4.078426314251445972e-02 1.195399801226296327e-01 -7.247182389600469454e-01 2.203757609344286217e-01 -2.673539057683874121e-02 -1.665523964184465466e-01 1.001945058940960781e-01 1.824629340906052180e-02 -1.785562211528313459e-01 3.253765766595163866e-02 4.976523326640779760e-02 1.659176393872303645e-01 1.215137856535231237e-01 -4.639760667568467584e-02 7.716679579381158227e-02 -6.274552340752972968e-02 -4.247498658667502036e-02 3.839588714278601711e-01 2.885555148870375120e-01 2.530214397581451724e-01
2.874351026272792820e-01 9.453658736674884489e-02 1.875245863344499053e-01 1.956117916390474332e-01 1.809154857293008385e-03 2.874863610544720061e-01 -2.134215458503190554e-01 2.046874012857501091e-01 -1.734750522197039679e-01 1.396915475059334055e-01 5.041151508900185707e-01 2.140322181520726008e-01 4.208014324903985304e-01 -5.098256639362164569e-03 2.779897772993300542e-02 -7.839613879939925922e-02 1.875058265245116429e-01 3.273000132493961711e-01 5.688332489542543557e-01 4.714011569452254691e-02 -1.938128617030084738e-02 -3.040020063599469524e-01 4.704561596515323130e-01 8.265311235720006200e-02 1.530186194857661719e-01 1.306496842932478586e-01 1.445742789207243341e-02 4.656196311427124868e-01 2.469882416435544847e-01 3.059873532963089393e-01 -1.038409527321745435e-01 2.392891371317403260e-01 2.956575691914803405e-02 5.314219692780358661e-01 4.612529425124766158e-01 1.712640490595902509e-01 1.654973172124308556e-01 3.468337106337517723e-04 5.966972672121612087e-01 2.251901769864645408e-01 2.083242301862440748e-01 3.391960224641350496e-01 4.372416864636983203e-01 1.297529322385191919e-01 2.315269111230026100e-01 3.410309579797349833e-01 -8.578286929889630819e-02 2.508231306148787573e-02
6.979930196062228420e-02 1.076555717942609403e-01 1.696524535178702831e-01 2.003386400894082986e-01 3.457437102953538899e-01 -1.855164229860692682e-01 -3.453480389895328684e-01 2.995628578216835147e-01 4.405263786740609699e-02 2.215248440905439320e-01 3.391776284099212169e-01 3.243521848520073969e-01 6.004962914035424371e-01 2.775899781439206127e-01 3.150771700641453177e-01 2.693358649860181364e-01 2.701876906455826788e-01 3.182480433865341185e-01 2.465726072713833594e-01 3.935881578290285898e-02 2.953086176005617625e-01 -3.383528828280906176e-01 3.529648908506531346e-01 1.556018706458537904e-01 1.697400530944292996e-01 -5.963932987888213161e-02 -2.651695578328038816e-01 2.778370159434482289e-01 1.015885979285459893e-02 1.655266646576398493e-01 -1.167072056239118992e-02 1.703883187567993562e-01 -1.234979483898761415e-01 2.558834909681016456e-01 1.980805419260638633e-01 3.524657932631199142e-02 8.624872810236175469e-02 1.240229356352734874e-01 5.342716601714402325e-01 6.122188253164491112e-01 -3.249767876817170192e-02 -3.571265240747580061e-02 2.270874562329800450e-01 1.931624369680768338e-01 9.695935701619033675e-02 7.970067222824577247e-01 3.611933949437522995e-01 2.630508481090695350e-01
-3.077390543107203502e-01 -2.019824712963835811e-01 -2.854232880450100485e-01 -3.242538562224813736e-01 2.493289373252297048e-02 -4.665796987061976986e-01 -3.109757405678399977e-01 8.229790372948937449e-01 -3.000213197673738397e-01 -1.722965704662482722e-01 -1.734485394831817018e-01 -4.964546723265800265e-02 1.749111901745323272e-01 9.558838447141940198e-02 2.931486561112041644e-01 4.947582968499361633e-02 2.123079519371703916e-01 4.481061871169679522e-02 -1.165750151026109099e-01 -1.025627841047669631e-01 -7.537351848816949973e-01 6.691206456602415420e-01 8.433069920699500649e-03 1.049481945157278162e-02 7.250056203436802682e-02 2.926677252145827232e-02 5.500837457190115298e-01 2.165769211342433442e-01 2.616028074005795068e-01 -1.279052520525947034e-01 2.610869504575755867e-02 3.341947919994137095e-02 2.247785218301710450e-02 -4.714084032730428975e-01 -7.948637405495605560e-03 -1.156137815755229892e-01 -4.302153761172480273e-01 -4.432266142893597216e-01 -6.178241680990719242e-01 8.688261691326436276e-02 -5.821346385176346949e-01 2.725113166826681477e-02 5.695565964612424315e-02 -3.658737820670412422e-01 -5.043261788388994082e-01 2.053483036012824364e-02 -3.753655044113346495e-02 2.529239463617066752e-01
2.492451193118181973e-01 -1.046354362821201311e-01 4.240393047939000626e-01 3.394096893075397147e-03 -2.554038739389987711e-01 3.757493251712862303e-01 3.275333577491303383e-01 -2.497973284422897178e-01 -1.215301949341314469e-01 2.968799634011920485e-01 -1.558080244803428938e-01 2.282840989537882614e-01 -9.911826497853599982e-02 1.784533985200590367e-01 1.382225155840536013e-01 4.023393702371876879e-01 -2.034280403367268453e-01 2.242106085340318800e-01 1.048050926011716288e-01 7.107153150401360198e-02 1.246323962665608041e-02 -2.076215170084061978e-01 1.070330400809864912e-01 9.643852686031864629e-02 3.864375050791315491e-01 2.033564828408583325e-01 6.386481271183860886e-02 2.808054993678860134e-01 -1.209700686390979135e-01 2.585050760289431260e-01 2.675328451783506312e-01 3.307838054316810106e-01 -2.353169812687355700e-02 -1.759385495316080628e-01 9.288526847137480030e-03 1.810727570116910656e-01 1.729242894792753227e-01 2.480613079026590395e-01 3.354216095538681830e-01 3.050592838971923348e-01 9.002092481625447590e-03 3.506611705101682960e-03 1.646116559828234294e-01 3.317404768979146934e-01 2.044935936313387326e-01 1.969194875029088576e-01 -9.142719422856791789e-02 1.094453391130225106e-01
-9.503276840124921798e-02 6.345332074538715394e-01 4.467468907208841933e-01 -2.374723156854897238e-02 4.378507101083015801e-02 -1.023057416616185156e-01 1.189799036770894103e-01 6.632734473629520178e-02 5.109073531920885897e-02 9.653172302571796926e-02 2.874823894748937403e-01 2.208425993786623243e-01 3.684160107224740965e-01 8.192089719957519611e-02 -8.611028957387298344e-02 7.225237981234617912e-01 3.312769581388645412e-01 7.220965932378430319e-01 5.735364987540256809e-01 2.907810253601026962e-01 2.187666329597841297e-01 -4.073083846667926444e-01 3.516189786653158844e-01 5.483170400974159975e-01 1.392236294968569044e-01 2.431531479034429732e-01 1.162167466139275712e-01 1.328039974687302838e-01 5.988658099892136821e-01 6.942042573278098261e-02 -1.157246527072331062e-02 4.398276257009872681e-01 1.637475858992475941e-01 4.314656547238214790e-01 3.965859457738225013e-01 4.013140670016937528e-01 2.735630166765947169e-01 4.684929022580242020e-01 -1.800753422236799628e-01 4.397872609063895877e-01 1.715119008800961298e-01 1.467206341221234112e-01 2.029307058390072624e-02 9.286888885206764921e-02 2.867493453918761315e-01 2.353923130567482647e-01 2.414012731351735386e-01 -6.311955542576801192e-02
-7.794695312835769885e-02 2.471355956228204198e-01 5.192882745966347358e-01 -1.075070703301075903e-02 1.812774937197903224e-01 6.837865095808370874e-02 1.677612657566045773e-01 -9.832196811491118738e-02 4.129600116536161769e-01 8.347572644173947842e-02 1.547009401344677237e-01 1.774192133335330546e-01 -7.021720242722587213e-02 -2.091273643867997134e-01 2.528131465460786154e-01 4.006988675037929104e-01 2.527433812975186586e-02 1.632686438251858968e-02 2.462095319081651357e-01 2.449701591549859336e-01 2.646854323994312086e-01 1.338889387895601524e-01 2.815374965428811202e-02 -2.499414592314110409e-02 -2.440752747258656818e-01 -1.195621745117683848e-01 4.587917265941099942e-01 1.833755952479820261e-01 1.259251141745720559e-01 -9.284706218109209375e-02 1.792189022168194923e-01 1.014936399120534294e-01 2.591074049123236883e-02 1.927184792974951655e-01 1.045063885301348305e-01 1.764211961354861802e-01 5.563224114484902061e-02 -3.947268474039722364e-02 3.419779533987432063e-01 -5.993024143707115226e-02 -9.733127698606217071e-02 -1.587852335539857995e-01 1.235494824768026689e-01 3.044249553863973001e-01 2.795698622543508205e-01 2.617281781862418333e-01 2.796588498448314142e-01 1.074151916222833708e-01
2.238135880824666524e-01 -9.026502896965747647e-02 -6.317985856961697011e-02 1.126778279690485683e-02 2.101664278343625958e-01 1.869136863909315327e-01 -4.408947829599176721e-02 1.367986899894678421e-01 2.009204261241872083e-02 -8.380834177548314445e-02 -1.002477846740890306e-02 3.753559609975730127e-01 2.063576903336700741e-01 2.210169874365993659e-01 -4.319854512473753072e-01 -2.427579957058189492e-02 3.207648746880804036e-01 4.402517625525486089e-01 -6.474605264005135752e-02 -9.330244338230483936e-02 -5.810880300643619240e-02 -4.078348879039226937e-01 -5.967975929220875608e-02 -1.113419511523478789e-01 2.865399669158669171e-01 1.638209005723689216e-01 1.670265151511485802e-01 1.790805591844388256e-01 8.889884014112167665e-02 5.455110705214637548e-03 -1.442001450922491823e-01 3.235549629198794519e-01 3.639853302005118252e-01 -5.266688607011602019e-02 5.427165697238089948e-01 4.354554844724767837e-01 3.354830689041082836e-01 8.917896147310229449e-02 1.446303558527978206e-01 1.419952928175545748e-01 4.139956833927198598e-01 1.764730747576628567e-01 4.882199351257223152e-01 -5.015156321989024807e-02 -2.853482886180082612e-01 3.984600022204761172e-01 3.659879458366730454e-01 -2.703009548348095925e-01
-1.265457489015211046e+00 -1.256752614676116542e+00 -6.468822488377439228e-01 -9.288693545569748355e-01 -1.598847050486943422e-01 -6.843010121391587264e-01 2.024761542188779559e-02 8.935490470697909915e-01 -1.213641911768096326e+00 -9.936581508239612504e-01 -5.911427572828451549e-01 -7.945424019058959786e-01 -4.157423186189717068e-01 -4.742799286448725060e-01 5.350168046770724661e-01 -8.390572313718290542e-02 -4.912079499545575767e-01 -6.071223360381550194e-01 -3.797309701637401336e-01 -9.881010962329548342e-01 -1.056208270285105444e+00 9.788394970372302772e-01 -7.662122825808320714e-01 -6.665996161695438849e-01 -3.945772833298471505e-01 8.961058858605862598e-01 1.013982112995726492e+00 -4.752214212765543677e-01 -4.125828877773199399e-01 -4.790554485079479008e-01 6.875731014853423417e-01 -3.934116967482594873e-01 -1.367855686707539542e+00 -1.029017190602256049e+00 -2.248388558556058958e-01 -4.598871861175944376e-01 -6.356658745387839815e-01 -7.841735628793357060e-01 -9.789379125961292782e-01 -7.220010994812258165e-01 -1.866273515768874569e+00 -1.475266936467522605e+00 -2.586922820092070197e-01 -1.188899189741611906e+00 -1.827889455212643011e+00 -3.838435946732748349e-01 -6.441636435789732662e-01 8.677692553881564130e-01
-1.094903796949046326e-01 5.853381034146882822e-01 7.040361321206989320e-02 1.463166415072608140e-01 7.712933260057100449e-02 -1.106172077030561501e-01 -6.564577503800871350e-01 2.607204365681435876e-01 -6.143715018088116014e-02 4.619546944968142554e-01 3.235617976423386111e-01 1.590508257540595993e-01 6.884956892202545031e-01 7.867452706867791301e-01 -3.712962160973227732e-01 9.561549179021868738e-01 4.787076996556530184e-01 2.632862237684702178e-01 4.085329317927876569e-01 3.835371614182183087e-01 -1.295757525175652847e-01 1.290112051156141471e-01 7.553044220267115527e-01 4.224893730998534602e-01 4.887384876294615377e-01 9.586335406690968744e-03 2.386620410663551906e-01 3.317697904518977503e-01 2.440566438690472961e-01 2.103031932972783125e-01 -1.073358394990582942e+00 2.195995779306008366e-01 2.046135615725496598e-02 1.748896593769515007e-01 4.590781433664365419e-01 1.055480066182614002e-01 1.685623706585115122e-01 2.446133790997018220e-01 2.264166193902434621e-01 8.211782154554563007e-02 1.662796447431695579e-01 1.015357984850460554e-01 3.144933846614739736e-01 3.890114135121922057e-01 3.881743722959842269e-01 1.464852425781232315e-01 1.722173596597915274e-02 1.446488703176422308e-01
-4.485990709290716971e-01 -1.646536309201427128e+00 -9.256819055018347120e-01 -4.607057948222836319e-01 -2.574240200791155786e-01 -9.703222549163040833e-01 2.144227262262861922e-01 1.414846546733663946e+00 -9.951468001728021040e-01 -9.707556771238339266e-01 -7.720095660745251998e-01 -5.970575613183377595e-01 -5.146703187001807622e-01 -9.457733367866676399e-01 1.237693315028985275e+00 -7.772308101092586519e-01 -6.931438240228121606e-01 -8.053946882847065059e-01 -9.282638489234650292e-01 -9.050129987207835569e-01 -1.049758549469373969e+00 1.061126367123488512e+00 -1.009032048406796278e+00 -1.036388555994136373e+00 -1.163523898561645398e+00 5.672187905063436064e-01 8.887903758636249707e-01 -8.860900433331486692e-01 -9.396516669492783747e-01 -1.012822851731484564e+00 1.013204162705271472e+00 -8.331470923704835663e-01 -1.120515859439250805e+00 -5.088795454454554390e-01 -1.313774803482097742e+00 -4.282770813801278775e-01 -8.571199633233897996e-01 -1.395594755940862797e+00 -6.141788525541367338e-01 -1.132246013663225304e+00 -9.652140910758414405e-01 -6.163578064508347110e-01 -1.006927593537743304e+00 -6.553959737327565982e-01 -9.364680179791399217e-01 -7.505002927028858739e-01 -9.279191459236462158e-01 9.870817120665418276e-01
2.484309997582476726e-01 1.075073046221802775e-01 1.472116693632158912e-01 -7.400642237475180130e-02 1.507766293711025329e-01 9.025791564427863845e-02 -3.057086915704047003e-01 2.480579920034209906e-01 -3.577385477823308985e-02 3.194957423811271013e-01 4.153579031590006604e-02 -2.171352746695261876e-02 3.648544561277707876e-01 -1.389218085183492601e-01 -1.034967676355069977e-01 2.600881553442858096e-01 -6.698693210018359656e-02 -5.163778283287145943e-02 1.004805480857689920e-01 1.971816678508851450e-01 2.026758470111116386e-02 1.361934611190230293e-01 -1.154889422676409344e-01 3.021485755833379083e-01 2.007546161888911773e-01 1.411989281665372020e-01 1.809717688352079426e-02 8.593367245526675191e-01 3.651248761269010878e-01 -2.299575797316658343e-01 2.070076297116094366e-01 3.452372224760342778e-01 6.917135087173352515e-02 1.019818959073554993e-01 5.482566299640246887e-01 6.811467206941958230e-02 2.061815121949741869e-01 4.134504314037380779e-02 1.944515226731697854e-01 4.033315789839291288e-01 9.720461054737646045e-02 4.816589283955338870e-03 1.058378819936706405e-01 4.770065631289946428e-02 3.606483727650811599e-01 2.705764412134936681e-01 3.169558216201557310e-01 1.947992868149192036e-01
1.265546605506983335e-01 4.305670974296581521e-01 4.179804499204122226e-01 4.262736729640457245e-01 -6.245158667201549108e-01 4.757873740799283269e-01 3.749382555538763317e-01 4.008101602864342673e-03 -2.358927842132964997e-02 6.746256802767497396e-01 5.381548793357955329e-01 1.591028689249036066e-01 4.512198077272521757e-01 1.292458565009675930e-01 1.272671002034096444e-01 2.255776288501361304e-01 7.000551842017999071e-02 3.082075676059351510e-01 2.142039121444056782e-01 6.301941798868665456e-01 2.147709243578489746e-01 -1.759738918469129776e-01 4.637170775555465863e-01 4.609242884830578313e-01 4.893063374193215576e-01 2.859100101031458729e-01 -5.187486987322981191e-01 5.978026383197295734e-01 4.580033484207784999e-01 1.209258376251348410e-01 4.714560416459893100e-01 3.566264101767905870e-01 4.742432931147125275e-01 3.058757952368503230e-01 3.014768734656808058e-01 3.999257304897704257e-01 -1.616589690427531478e-01 3.620974947629365115e-01 3.144205129038460389e-01 5.678898954169541158e-01 5.888198864977062241e-01 1.213036200232326806e-01 2.928646648150979859e-01 6.027294038310314628e-01 1.451412618886726014e-01 1.626374010500104272e-01 2.447329240326396871e-01 -1.829688088006959645e-01
-5.211124124597734664e-01 -1.170101690596544008e+00 -4.900853507102494455e-01 -4.811236962251401739e-01 -5.260938023544153852e-01 -4.011454553131795220e-01 6.176228551477604967e-01 3.441726322533663063e-01 -7.455919836335821449e-01 -2.462741001308276778e-01 -3.205600395806544323e-01 -3.741275265629473989e-01 -5.158505895479914560e-01 -3.206811557960604353e-01 4.768381188005241800e-01 -9.410306781316944980e-01 -4.572559336350617842e-01 -4.878213332092108390e-01 -7.657875658149653209e-01 -4.510022908923697060e-01 -4.263285263592124785e-01 4.151193159329663041e-01 7.056665535999509520e-02 -2.514413567104561986e-01 -1.803406998058332267e-01 1.238502037909178455e+00 6.199742932123596395e-01 -6.132824962654448431e-01 -4.129889941578873125e-01 -4.250572504475347291e-01 4.287915765829541370e-01 -4.602087587518164380e-01 -6.902598617751066756e-01 -5.048534291177433353e-01 -2.567784910990452141e-01 -4.611478773839655654e-01 -3.917881349244617950e-01 -5.345624429598291316e-01 -7.338410415366791728e-01 -5.856514563035237764e-01 -7.941077759597263697e-01 -7.832127005042116563e-01 -1.154499037725982696e-01 -6.111776708940352965e-01 -3.856464326441352841e-01 -3.821984577603059763e-01 -6.038428251715425299e-01 2.680194227751849824e-03
3.865639086914389733e-01 -1.331547627802605049e-01 2.419799963505432638e-01 4.386792933884014478e-01 6.344510890145073356e-02 2.618310827405029295e-01 -2.696809291848067947e-01 -2.382493131776458883e-01 1.416016266454664940e-01 4.272059281003416364e-01 6.255540267840810076e-01 2.717911649742908442e-01 2.738836300149989911e-01 2.293754269343838137e-01 -1.257331200391177961e-01 5.823650230089996715e-02 1.597240696127076587e-01 -1.885064970359300318e-01 -6.830671509837567268e-02 4.678004763773649377e-01 -1.911043813265201827e-02 5.581979349181512839e-01 -3.125593078924513574e-02 2.961446296211497908e-01 2.778002790300995728e-01 1.991452787864419205e-01 5.312933931791696124e-02 7.173274727826901842e-02 3.975962265106855464e-01 3.535647825810223077e-01 9.866951985053817875e-02 4.143550578666005957e-01 4.317038381760165411e-01 3.356843836482393262e-01 4.477666835884818175e-01 3.600797716828182948e-01 1.681893768427138447e-01 1.248241163061171860e-01 5.415468142702377641e-01 6.077372939421595843e-01 3.286832784721999134e-01 1.219701835958889591e-01 8.962444962794675896e-02 2.223254123608251753e-01 3.038964123758183256e-01 5.566583738159108091e-02 2.146597905596583644e-01 -1.319571187176470616e-02
-7.979330605301651613e-02 -1.166533243518381308e-01 -5.803477744791171178e-01 -1.814829701596368527e-01 6.584334466186213264e-02 -2.610233294811752924e-01 1.910468726227666503e-01 4.724242926515418994e-01 -4.851139778377461242e-02 -2.282820613457414716e-01 -4.117851274324352273e-02 -1.390205628852660691e-01 -1.376625675363202239e-01 2.309268854019354833e-01 -3.260558590978224897e-02 -6.964104707560950791e-01 1.907421555629719712e-01 4.115205877395218363e-03 1.323259294350451198e-01 -6.127442531656741159e-02 -5.337330890851217369e-01 5.862919888049207273e-01 -2.408286251968533298e-01 -4.039498934390913787e-01 2.986713380808539778e-02 -4.781336590420881549e-02 4.803750203365079741e-01 2.422354453329867430e-01 -2.999095320192560754e-01 -2.770277649246707941e-01 3.719673084200211810e-01 7.902614593013577993e-02 8.991416043350136666e-02 -4.699517282560921605e-01 2.257366539637597758e-01 -5.499416482422717772e-02 -6.002836837461238417e-01 -3.585677315200493931e-01 -3.507562125269135245e-01 -2.291213686708321318e-01 6.731502865474252306e-02 -1.749187485878239412e-01 8.824452970816526465e-02 2.346240797811231446e-02 -2.523802328523898075e-01 -2.399101669328209396e-01 -1.945085159839088362e-01 2.980555846308026169e-01
4.284536013696568779e-01 6.182386437611105956e-01 4.641428792951290960e-01 7.800343058196634871e-02 -2.747168080024808279e-01 2.971250110946850875e-01 3.279863729646053661e-01 -7.047349267658872818e-02 1.747336549996400534e-01 4.308397766624825764e-01 2.757627227528974267e-01 3.681290623536290774e-01 3.522013899015229987e-01 4.510046743620708676e-01 -3.387117385061005903e-02 6.867544732118603390e-01 3.475631999887482393e-01 4.367758403845350412e-01 4.925011897311746822e-01 7.002247268297022709e-01 2.345258704358863522e-01 3.494973437518142934e-01 2.102628009191087610e-01 4.953377300041998388e-01 2.867491420656890222e-01 3.202174812099551349e-01 7.041912389149020124e-02 1.996301246588811085e-01 8.252688870838455204e-02 4.837702940008544172e-01 1.329315393634367126e-01 1.158920098522111530e-01 3.386945531374783158e-01 4.836799635841489975e-01 2.395570304746328094e-01 3.940993457071803596e-01 1.546088979919805206e-01 2.738500477277736600e-01 1.728897820489024850e-01 5.031581510950668967e-01 3.784207696510400454e-01 4.393950466738757998e-01 2.946933520914077342e-01 3.245761638905718116e-01 6.269416842323108918e-01 5.058484570834140825e-01 -1.151358387506400127e-02 1.379699026810188023e-01
-7.685717695632383606e-01 -1.050226735171431836e+00 -8.153057957630746033e-01 -8.787663684519265717e-01 -3.299577443437002322e-01 -1.101355129825011270e+00 8.463688427966706840e-01 2.677021605644945845e-01 -7.655938428446816824e-01 -8.978793819710303437e-01 -9.093834530867224153e-01 -7.820548181520234898e-01 -4.717836947479885357e-01 -7.794079361305656928e-01 9.879333331820113751e-01 -1.129929646659296294e+00 -6.217381535136196069e-02 -4.531449314357203217e-01 -9.612258720399081691e-01 -1.092781029631616274e+00 -1.163422227307186807e+00 4.504566933048683164e-01 -1.855769884503322420e-01 -6.568308675865257573e-01 -6.164921117426339636e-01 -2.754737142935951427e-02 8.055707039500819011e-01 -5.190575842531423012e-01 -2.168801053697828884e-01 -9.809094417806278887e-01 3.771941565628824100e-01 -5.895466326321836537e-01 -7.907165905457056443e-01 -8.471464524413264696e-01 -3.192480085704604287e-01 -5.620676221799043581e-01 -4.843177650805469692e-01 -1.206744368241021714e+00 -8.385303507160720704e-01 -7.019637008814814116e-01 -9.047633717891742089e-01 -1.004341203633994484e+00 -7.536023300650190881e-01 -9.894554527595634807e-01 -1.067837563231404996e+00 -4.775778406891804106e-01 -4.114163376083293522e-01 5.589961699351859714e-01
2.341372267852644407e-01 5.077977330648106996e-02 2.195889898067699408e-01 -5.373847807644153290e-02 1.131878059660538643e-01 4.152253187707533044e-01 -1.082008176197606364e-01 1.014043294006846813e-01 1.471085947674008465e-02 -3.882209607233068349e-02 -9.038968598800868615e-02 1.852224648289144404e-01 2.097402910697947487e-01 -1.684912346256623727e-01 1.244321105909690500e-01 -1.302019791138293026e-01 3.797500718283090548e-01 8.557126737512796288e-02 4.090141760285395667e-01 -1.830828371862976492e-02 3.094966977571890210e-01 -1.677464939724316595e-01 3.154189134536933836e-01 -3.732139952473389338e-02 4.151799911011144761e-01 -1.119403120330001306e-01 2.934654110787155434e-01 2.446916707676806135e-01 -1.280933685942723110e-01 -1.327356707826158645e-02 -3.918058402647817129e-02 4.539750782148166963e-01 6.238331339002084475e-01 1.103412869562315352e-01 2.899157620743859631e-01 3.701455379080764163e-01 -6.441469591773309189e-02 3.658219874493290336e-02 2.467208315172351452e-01 2.412886899924380768e-01 1.288169829474276606e-01 -9.479751645896965229e-02 2.113573418791370451e-01 2.009767816304895149e-01 -5.037875441547078059e-02 2.509835919039045682e-01 5.286160857541589708e-01 2.427602264466313317e-02
-2.473695694050390970e-01 -4.975807947301378320e-01 -2.964252071752233042e-01 -2.067731282730631281e-01 3.773288304509109931e-02 -6.162210409963323476e-01 -4.100350614803848215e-01 4.798927612007287680e-01 9.545486905640139519e-02 -3.062898819908329573e-01 -2.585034386879794810e-01 -1.348200442972763424e-02 -3.763839757704718902e-01 -3.929085309408653082e-01 2.882470574759382065e-01 -6.567433023772536460e-01 -1.903124423530247189e-01 -3.101537121207397774e-01 -1.905478393259070757e-01 -4.287413093949433707e-01 -2.140257224550893012e-01 9.762149878054694474e-01 -4.406052567954128474e-01 -3.352601538393183978e-01 -4.193053179429998556e-01 -2.815889852909875257e-02 4.144370946198766004e-01 -7.327545174703750663e-02 -4.271921850989237046e-01 -2.392056731567662187e-01 4.468445604631593460e-01 -1.710194675977416146e-01 -4.431020958052847569e-01 2.286288177329718341e-01 -2.876884615133483702e-01 -2.354085534875264840e-01 -4.592693905263042220e-01 -4.435460081827384271e-01 -3.650411453129139838e-01 -1.217754949042940084e-03 -6.356359086508849288e-01 -1.211590090053033253e-01 -2.810744619839651570e-02 -6.049024217935256020e-01 -1.215599084959296389e-02 2.666083508231901350e-02 -2.604263022498031210e-01 2.880452557882149378e-01
6.417298058303843034e-01 1.647605232448026702e-01 6.422785429131823154e-01 2.934794495765817302e-01 -3.892618557377223731e-01 2.166740136090820890e-01 -8.023737737637011425e-02 -1.106854547594209759e+00 4.074554034652204115e-01 3.375429898105610227e-01 6.599990885377979843e-01 3.198267425025534960e-01 3.811453514169506063e-01 1.986793370785274737e-01 -2.663105146582100402e-01 1.971704070136817699e-01 2.951574071281712897e-01 4.620513983723252838e-01 4.489304335280801528e-01 5.898537137816054488e-01 2.619894497282355128e-01 8.810658632161029180e-01 9.721716221870999597e-01 5.843813515240584566e-01 1.618660699208732956e-01 -6.778894783980912164e-01 -8.732805768751279729e-02 4.461345336067425449e-01 3.760532420554723587e-01 6.819394598315914324e-02 4.190508297525600279e-01 6.674592775542753653e-01 1.205791402497116555e-01 4.260339082902604435e-01 3.776820831806105838e-01 -6.193830985596107674e-02 1.831300594798522530e-01 1.870567392107230498e-01 8.921719816576034745e-02 3.776992435117137448e-01 8.501387514597574802e-01 8.340959985456517511e-01 4.098222071016753842e-01 1.808611674545317072e-01 2.122102079938297525e-01 5.632390322237765812e-01 2.565348182351456230e-01 -1.255063543833702666e-01
1.338020104569477009e-01 1.985830573778875063e-01 -1.358337588766835025e-01 1.039081247601011393e-01 -3.474137304553204936e-02 1.687879377363902533e-01 3.687004897728737851e-01 2.258245353920136991e-02 1.054761453271300664e-01 4.643328280329124813e-01 1.362192451162099749e-01 2.043870580000451131e-01 1.433719656067908299e-01 4.015427921598765937e-02 3.139900402049466410e-01 5.449971330607908948e-01 2.266045462096440977e-01 1.875019237842147635e-01 5.191295932585339168e-01 1.105609081193121151e-01 -1.920647170674369755e-02 -2.796554606829494416e-01 1.813814783362674710e-01 1.097310555793814535e-01 1.926635253609502996e-01 1.647911837612155150e-01 9.991731377942771053e-02 6.321089715702419287e-01 2.023593392152389647e-01 4.856678488731935306e-01 -6.031575512745188106e-02 3.887399947608807249e-01 8.997376573778256836e-02 4.098884905452295224e-01 1.693952291812052535e-01 4.549996159753521008e-01 2.061962300208248968e-03 7.364312573867060063e-02 -7.885136234347837891e-02 2.434082990371943256e-01 5.916073488586601897e-02 1.016565207372650409e-01 -1.583014471920830279e-01 2.610002019580054400e-01 1.157396886063479235e-01 1.392369095606690310e-01 1.353761656654028644e-01 -1.066093604882324269e-01
-4.794716112725328633e-02 4.394808963527207513e-01 2.372593632868773283e-01 -8.213048855284510452e-03 2.233008148298184503e-01 -4.726558882680333834e-02 -7.713210912601230554e-03 -2.219854031980667275e-01 1.739379500449563243e-01 2.970697813553227484e-01 9.635034490987952338e-02 2.556714403978171402e-01 1.223753292271375914e-01 5.623548400013897441e-02 4.890145857670095964e-02 1.963931712077517378e-01 -1.958916574907454133e-01 2.066059709005467204e-01 -9.498068693512413951e-02 1.030462585056545616e-01 2.222438690721659227e-01 2.089296156483848865e-01 7.743028462410790624e-02 1.497936437881531857e-01 -5.574596465258305211e-02 -2.978525322586380031e-01 -2.274471865232029211e-02 4.163479005684602163e-01 1.684712678135738551e-01 1.693528466864367144e-01 -4.193619060412769745e-02 1.934703114027777893e-01 1.746676336967397380e-01 4.378754655422618658e-01 2.681216860574589522e-01 1.433185583039515154e-01 1.028609894119710821e-01 1.555768418500597938e-01 2.055133140832465788e-02 1.855647614356061015e-01 -7.043146750814897883e-02 1.139254058456036917e-01 4.819415676984041830e-01 2.271613560549704536e-01 4.201364429107756066e-02 2.703736957200787439e-01 1.542592742120605098e-01 2.265124252454207496e-02
-6.262047302216989034e-03 6.220880977757696773e-01 1.293132920048200088e-02 2.177601415674665641e-01 -2.359178540761737441e-03 -3.763727151599102205e-01 5.636665398991937137e-02 -1.533032290668824016e-01 1.226977752537080912e-01 4.449435762970210817e-01 2.283751236363069370e-01 2.120853713103450222e-01 -2.553915821953386955e-01 -1.307861986080969818e-01 -4.990477151723095306e-02 6.746893769348610848e-01 2.990192688106029228e-01 2.743634794597953341e-01 1.786102654900764142e-01 1.694953421225024459e-01 3.924999358099909991e-02 4.347493686467275853e-01 4.625451479369080410e-01 3.608653264186087450e-01 2.807960115521068722e-01 -2.671974837174720396e-01 3.824621606419303377e-01 5.523323558862284210e-01 2.711528754721948542e-01 3.860006042763908796e-01 1.331702279603409478e-01 1.841816309513681360e-01 2.221428414529371398e-01 4.028953961625862945e-01 -9.328489736252516817e-02 2.984349963889491586e-01 -1.846317949591178842e-01 -1.777117106563758653e-01 1.580085016299892856e-02 3.115910223122310696e-01 8.839562264738441699e-02 2.087884486330476574e-01 1.506915676970291273e-01 1.012683342913491824e-01 2.517485921057792675e-01 2.913210622331647293e-01 7.939100901625240070e-02 5.272889553334267898e-01
2.102788407235345238e-03 -3.336166367828890533e-01 -3.660622835533050012e-01 -1.946638683682962445e-01 -4.542369392611525503e-01 -7.955056716570253761e-02 -8.118398193802342511e-02 -8.213469794551989112e-02 -2.770323324146442001e-01 -9.630204589449060937e-02 -2.919240899967063263e-01 1.948265815172894877e-01 -1.248371674955542077e-01 2.545386431028006866e-02 4.171336265238639318e-01 -3.975595782382764787e-01 -2.600443011710286134e-01 1.833664968188504774e-01 1.476275507676432508e-01 -3.207377799261698637e-01 5.205166317002465903e-02 4.783356751381921401e-01 -1.828878596368940790e-01 -3.143692598582868425e-01 -1.846357393563377580e-01 3.725539487448773501e-01 3.406183469760028504e-01 -1.766437301022093231e-01 -1.638547060584669424e-01 1.617093922040455101e-01 7.260656081045842036e-01 1.579007222667062338e-01 1.097667653275239685e-01 -1.890266633900370141e-01 -1.963070896021268386e-01 -1.771578467066964313e-01 -4.375300892620159199e-01 6.826809411307682707e-02 8.287604492447238347e-02 -2.379949863309204772e-01 -1.264204986440683742e-01 -2.982457461774992158e-01 -2.258836930733449100e-01 9.481291582618063540e-02 -2.108936281455396355e-01 -4.651062600933904556e-01 -1.226653865935093957e-01 3.025635858858807120e-02
-9.919279725089970023e-01 -1.332265238486241676e+00 -1.011763023765622771e+00 -1.303479852857490906e+00 -2.190055337469506425e-01 -1.114103227346576741e+00 7.819162671269849207e-01 1.258668730011231474e-01 -5.329554207993036918e-01 -1.357268671397035442e+00 -1.304695171630742667e+00 -1.161825343560790369e+00 -1.076322106132342027e+00 -9.752833435455046107e-01 1.131561513024850862e+00 -8.369117611861337513e-01 -9.037768081555206390e-01 -8.117968671358433141e-01 -1.332323873036575845e+00 -1.060078378264052601e+00 -6.783412277739414575e-01 1.345690744394384186e+00 -1.008665112846455880e+00 -8.702282839162808203e-01 -9.061052551021365753e-01 1.157160625743660409e+00 1.363205324801357810e+00 -1.073628997136060637e+00 -1.009639582111769851e+00 -7.598049081668467597e-01 1.328721643206189240e+00 -1.030999989263812422e+00 -1.223930799930003310e+00 -1.183928910542095814e+00 -7.018833190977670222e-01 -1.096160839234106898e+00 -1.076523626256506994e+00 -1.270839133166354440e+00 -1.064065585433701333e+00 -1.444314404649898131e+00 -1.634543752412421336e+00 -1.606958551531831869e+00 -8.693762219991590934e-01 -6.981170794207448571e-01 -1.442279647980987178e+00 -1.121731476484467027e+00 -1.042763259761462447e+00 8.269412936102451539e-01
1.128617845264240360e-01 3.008343819348772985e-02 3.931756652610569613e-01 3.089040737313019647e-01 -2.769252769487414167e-01 1.355530890870161043e-01 2.290455254706968702e-01 4.300464111729637162e-01 9.815160025961146284e-02 -1.765690148655989916e-02 -7.974145268611256693e-03 3.083995126574676782e-01 -6.943271810816120833e-03 1.899295278782421326e-01 -9.939513739193431285e-02 5.108017730010115942e-01 3.562462546556638410e-01 2.934797332382327872e-01 1.854044254916198120e-01 1.864485991062427017e-01 2.434673405976495175e-01 -2.320713126821519479e-01 2.551593390019259999e-01 4.742475017370928470e-01 5.430878799518421562e-01 4.541831457802099070e-01 1.152860839814771471e-01 3.241223769181886261e-01 1.321326733897685290e-01 1.101005091877913372e-01 -1.152854598534345937e-01 7.269925785900675265e-03 2.425225511362191777e-01 8.031120764910262833e-02 4.669961314599759827e-01 3.614387847355342576e-01 4.498379101214429743e-01 -1.013636703863407262e-01 1.528981700813529243e-01 1.220824258507760690e-01 -1.145134756372237494e-01 1.253448011435887854e-01 -2.145558316036525956e-02 3.519814192331715552e-01 -3.332642056110747264e-01 3.980051822083863211e-01 1.304365333512652048e-01 -3.346973513831232871e-01
-2.783957978177478004e-02 8.594796665832755977e-02 5.358918424899037497e-02 2.821767566089520285e-01 -2.409082816738095101e-01 -7.075465183484257181e-02 -4.657309993856780655e-02 2.470197596597735190e-01 1.369071003846276391e-01 1.216540576391278022e-01 2.076532936161427922e-01 -2.323523813291231976e-01 5.383327069336340392e-02 1.295522591167436732e-01 5.154670252778661976e-02 2.600949906010290857e-01 3.767851353970234074e-01 1.042416471866549621e-01 -2.410323792081707217e-01 -1.320874290402886397e-01 -2.531832492783229194e-01 1.661509262410340304e-01 5.411450238530909340e-01 1.351440789020630917e-01 4.315085747069126176e-01 2.103059583115890752e-01 3.553484344374607251e-01 3.056826353054251100e-01 2.441073972878013976e-01 -4.422140428548989449e-02 -1.281240311155417214e-02 4.272654105456451523e-01 1.003965338834436616e-01 -2.978978961829854000e-01 3.713210240658869621e-01 3.107511955814853399e-01 2.240639352864312941e-02 1.818933566316890404e-01 -1.753939911058574608e-01 2.170194893805570679e-01 -8.347975707167516746e-02 5.881782968556593938e-02 1.753062820528801524e-01 -9.989319658063608443e-02 9.433044402654972016e-02 1.120357484812945364e-01 1.325704053451806641e-01 -1.631435825413544427e-01
7.252299204518189435e-02 -3.225038377072068085e-01 1.915800022228014710e-01 8.038315362739373304e-01 -2.571021834507219439e-01 2.357490563885832890e-01 -4.935502832832477926e-02 -8.619071281466780254e-01 3.624986816493136477e-01 3.490096472932749938e-01 4.282005029911743477e-01 1.667160714296579138e-01 2.375361570127423605e-01 1.326664750640857079e-02 1.065712310605371194e-02 -3.030640918325870903e-01 -7.056575906031579970e-02 1.924985313224227557e-01 -1.898058621112213851e-01 3.741467850572184339e-01 7.512849613337305166e-02 4.151610240668034413e-01 1.052212928967406341e-01 2.027515655977377707e-01 4.772769252617155566e-01 -2.999641686065911972e-01 -1.719011787445837991e-01 1.046610659771032986e-01 2.471599888122796851e-01 3.281408544051602760e-01 3.675002056130631245e-01 2.633843950189511049e-02 2.257614774064324592e-01 4.065314853519771399e-01 3.660420638463598997e-01 -1.634529772480610987e-01 -3.444415980220455475e-02 -1.457647668067982294e-01 2.485869592010232776e-01 2.789671475027855618e-01 5.371126948284259406e-01 5.176327164558209848e-01 6.414765899659212456e-02 4.829984644589930404e-02 -4.934554423823295233e-02 2.520300623242834326e-01 2.686057941256068116e-01 -9.905562900606669496e-02
3.169564109528266171e-01 4.572915628463035120e-01 5.503631144674292486e-01 2.254867661503107967e-01 -4.553135073763623364e-01 -1.060096075849247949e-01 2.322905729212192405e-01 -1.306052057618007634e-01 2.288029979282413806e-01 1.870911151907594591e-02 -1.325043217508475868e-01 5.402094736251910057e-01 1.301840777695667251e-01 3.013989466458684152e-01 -2.484740327745466881e-01 3.740741156836202563e-01 1.943704679915331593e-02 1.527797880155624677e-01 -8.893179636226544726e-03 3.401445393672817286e-01 1.124433940631665851e-01 1.854213154149689236e-01 4.427265403474531236e-01 5.177655420310198764e-01 2.503918695139291661e-01 4.276618042858597590e-01 1.597356324369995917e-01 6.216035846652920860e-01 1.952939984568003440e-01 6.870981789793907668e-02 3.680507536843077854e-01 4.733227645801433847e-01 -2.683359724271903723e-01 1.245876515399946954e-01 2.799815167345198752e-01 1.583952937532415728e-01 -3.365926066197910682e-02 -1.526408550873681845e-02 8.828193978197487746e-02 2.625510029425911496e-01 6.495145506889608011e-01 1.471465020241173420e-02 4.462852199762989969e-01 1.990789869268346224e-01 5.170180570110398666e-01 6.889813344265283135e-01 5.134156300075277263e-02 -1.056633272430129201e-02
-9.842416476414672655e-02 2.460430369955091956e-01 4.444996563549966084e-01 3.663357484576297840e-01 2.185632708629083598e-01 6.858502086106714468e-02 2.086836527911849759e-01 4.019746778934383813e-01 3.969469494586115865e-01 1.328308931459389608e-01 -1.446261222066589636e-01 2.267739406991308576e-02 2.664578388332821887e-02 2.845871266544708900e-01 7.125137214441512601e-02 2.634040346942572719e-01 3.283447663498936242e-01 1.769685417707027586e-01 4.670647233674157239e-01 4.509850812275501691e-02 -3.205638302263913442e-02 -2.111619569814326969e-01 4.705105704186752225e-01 -1.222675414391619780e-02 8.270030887187611313e-02 2.779168245916675828e-02 9.291823277786127877e-02 4.685245404744762254e-01 1.229104604751310864e-01 2.632074801857429702e-01 1.303684017010945349e-02 1.110703893116890412e-01 5.982495767043687768e-02 1.085560262856703484e-01 1.115557009535109723e-01 6.516602294316805599e-01 2.078525095489949515e-01 2.288253513013273899e-01 4.715420046940880794e-01 5.789264475291788781e-01 -2.522618205967063210e-01 1.730836341024300784e-01 2.796510869992935300e-02 7.399038571794439023e-02 3.572663872501565668e-02 2.823828162297464459e-02 3.403362751275060272e-01 1.214545617355472090e-01
1.265805726366360778e-03 2.514239203592926741e-01 2.809138321941290206e-01 2.041975049951572641e-01 -1.695252486686890103e-01 5.916769457571837698e-01 3.737019082605313458e-01 1.407908968987899578e-01 4.656767181996785548e-02 -1.592729920300148781e-03 2.411559913300111990e-01 4.348904386951439605e-02 1.676873586604792354e-01 -8.648047567188472257e-03 -1.659654955814824362e-01 -3.090408219242059620e-02 5.916734648431860172e-03 1.816431459452447772e-01 1.154649587027290203e-01 3.263055493952178310e-01 2.431815750865025383e-01 3.893373820472834090e-01 2.283270503391802431e-01 4.994670788349425128e-01 4.757287370622304001e-01 -6.432147074149598825e-03 -1.024226957254942560e-01 2.845543914032248600e-01 1.438926811842504427e-01 2.654193778811104187e-01 7.742075137819359396e-03 -5.254349536106698443e-02 1.496678176350596003e-02 4.160215705870179415e-01 7.453160713845317920e-02 2.152016064567355003e-01 5.902090090906492864e-03 -1.009238528224787323e-01 -1.062363320390194155e-01 -2.602945155443765479e-01 -1.568047975912412739e-01 2.658741514427289121e-01 2.230752582205875467e-01 -1.149276911125533401e-01 4.026909435423921962e-02 2.109635145191713079e-01 1.880123214155679512e-01 -4.193557585615674266e-01
3.421344719197353390e-01 5.980696409874187713e-01 5.700901070790181935e-01 8.351035592313890699e-02 -2.365405106281918413e-01 -1.078023581526180719e-01 4.507457034669006685e-02 -8.918594028235737881e-02 3.779660676969168742e-01 3.307472709933673705e-01 3.312161307714671099e-01 8.137410768816308315e-02 3.645026468156542521e-02 -1.433608639109657315e-02 1.885443667056232453e-01 3.014856898434207233e-01 2.227789288867926265e-01 1.767137538487417170e-01 2.469980413194004798e-01 5.090379183322324419e-01 6.576309313688051550e-02 -2.561505959348608363e-01 1.398182542718405530e-01 1.158753225696503714e-01 -2.323878304324858424e-02 6.799983500526908531e-02 -1.865357203377793482e-01 5.464102148609761844e-01 2.230853008959672867e-01 1.389418328062566599e-01 1.046146306645942686e-01 4.716016746161907913e-01 3.072701787562922005e-01 6.493421044295748512e-01 1.759817182343205444e-01 4.676894964231782525e-01 1.095424580966991440e-01 7.401139504406267777e-02 2.048889366167978565e-01 1.449555783329142811e-01 6.811586647164871167e-01 6.732791616762948683e-01 2.027756144789169823e-01 3.921434221205581938e-01 3.470320333352676645e-01 6.778128578876190247e-01 -1.148504304135571641e-01 9.410122036116323752e-02
2.406540438285199035e-01 8.920757571181566759e-01 9.136454829507721920e-01 2.678802728834185909e-01 -6.413093743559211690e-01 4.610559319540181722e-01 1.552231289705788830e-01 -1.001725182335987174e+00 3.652563484552326378e-01 7.961244430544794914e-01 6.799616769132954541e-01 6.007493829129438856e-01 3.557196371026111192e-01 3.960511460556243590e-01 -2.856661616808024995e-01 1.157441981424832900e+00 3.199497446988635585e-01 5.679645461377738069e-01 5.200964653083520739e-01 5.927679792631097566e-01 4.299836271202229221e-01 1.878314525561809167e-01 5.608413553736043555e-01 4.668964146228379297e-01 5.962829112684783217e-01 -2.670548237082703835e-01 -2.132982317068008449e-01 5.718208682026412193e-01 7.700077291103589738e-01 8.212426228189728672e-01 -5.130196583569441859e-01 3.513826852924918365e-01 1.874648965819054325e-01 4.479159931134920059e-01 4.553205292609984745e-01 3.320804154499203964e-01 4.859518283657204285e-01 1.134734894969949837e-01 4.302561816499719249e-01 1.927205652466595087e-01 6.447580879233970608e-01 2.256368616443597541e-01 4.031710448669637015e-01 5.369259735256028954e-01 2.572236911022873773e-01 7.849023334561168186e-01 4.485745158853261527e-01 -2.122965076054472988e-01
-2.435617252024538382e-01 -1.342650028411752905e-01 6.988226476669395781e-02 -1.286296632053902655e-01 -1.817318701907807629e-02 -2.175802313067725924e-01 -8.388874288328385109e-02 9.759512499631423088e-02 -3.341661631657972392e-02 -3.292727030753508227e-02 -1.056410403686160737e-01 -6.869229900592772886e-02 6.714689801680710779e-02 -1.389140318119740612e-02 -8.384841463069085329e-03 2.153453746722606144e-01 4.175814755416755730e-01 5.548889494932620486e-02 2.228866904089444323e-01 -8.555241166285550147e-02 -3.555121455000000430e-01 6.612429492480030591e-02 -1.744620031234949686e-01 2.568996757991379859e-02 -1.919522876932989452e-01 6.381413864875360442e-01 1.162235553786499231e-01 3.912495249540375863e-01 1.984115016080719440e-01 -1.949631525461939796e-01 -9.770796405235988857e-02 -2.834654120352070872e-01 -2.895201937590492491e-01 6.997443856228469095e-02 1.315831896368782061e-01 -3.377753018004769348e-01 -2.746651066987515488e-01 1.312439630907240584e-01 -3.976836202767276007e-01 1.974331596317457915e-01 -4.270599498082025547e-01 2.178230657431263761e-01 6.586217678839900724e-02 3.315014671363036153e-02 -1.174780495776811678e-01 2.952640846731816038e-01 8.336484332511372164e-02 -2.462701998528147029e-01
-9.821072110462865379e-02 -1.177717770200234076e-01 -2.128980911935205722e-01 -3.588025984132898194e-01 3.152835425374891365e-01 -8.530802626170606862e-02 6.993680932320867072e-02 -3.050201499793580018e-01 -1.591436515210910840e-01 1.967819048863755360e-01 -1.629591241753553243e-01 -1.286247579626665360e-01 -3.359793728100713972e-01 4.293466281186798794e-02 6.338550376239429629e-02 -7.153673392181647550e-02 -7.294469579950416116e-02 -1.383910381060907691e-01 -1.839613711394665063e-02 -2.226342134515970836e-02 -2.453290966006674290e-01 2.914609470930841773e-01 8.453680005584870982e-02 -2.605840434903538422e-02 -4.800901459442342145e-01 -1.543886501591207328e-02 5.946077462252638002e-01 7.456088543691836990e-02 -2.267961612348548539e-01 -6.004917729392957731e-02 1.434379107070571091e-01 -6.085302494753313390e-02 -9.322326908215013141e-02 -2.033245876712733505e-02 -7.499255771220221523e-02 -2.478540044735939585e-01 -2.773715886111922588e-02 -5.260951671864075863e-01 -8.584842042182644350e-02 2.405606548501715014e-01 -2.782256383665658861e-01 -6.908918006861434202e-01 1.024849328730585152e-01 -7.124860816015426979e-02 -3.112154631942370409e-01 1.336719038230200496e-01 -1.053758195386456653e-01 -1.014505954615161909e-01
2.151785667160922844e-01 3.883772734733207388e-01 -1.955661847400085862e-01 2.498658516580743727e-01 -3.387160264480983396e-01 2.729493310715049303e-01 -9.768130943911135233e-02 2.055777501193598311e-01 1.365081458229088496e-01 8.220783569007024394e-02 3.424916980107988729e-01 2.166328191745106879e-01 -8.415734195557485198e-02 -1.934705760201289315e-01 -3.899630087496552822e-01 5.115620947262279339e-01 3.701095569505233884e-01 1.611817457567134640e-02 6.707369075222493482e-01 2.274009080573029806e-01 2.913571615995420028e-01 -3.643446980443433847e-01 -7.207953933854313600e-02 -2.155001661513187838e-01 3.230704350478098008e-01 3.392329608650518913e-01 -1.449249147113196579e-01 9.922906670827637277e-02 1.816521821402860837e-01 8.495685428046657883e-02 -3.402921304953531734e-01 4.716901182060782571e-01 7.501048805828275379e-02 1.095471642948709634e-01 5.315571100124826254e-01 9.744889850968990741e-02 4.135555109595401291e-02 1.169220558043325073e-02 4.686226664302873268e-01 6.058053503085261138e-01 4.691242317761752378e-01 2.213473858960746388e-01 5.438321411891428731e-02 1.266538168137618936e-01 6.357557248795812910e-02 -7.198893822975309387e-02 3.419295710335373828e-01 -3.799192606257791316e-01
-5.891486572961148610e-02 -2.423113876807780898e-01 -3.449428685858574317e-01 -6.543257120304244445e-01 -1.198787409159755846e-01 -2.324150275487770478e-01 2.935233093559293516e-01 2.738583442578875760e-01 -4.894058075296432997e-01 -4.304188553163773023e-01 -1.204619991064364570e-01 -3.835301427711235722e-01 -7.989268586681017026e-02 -3.329618412976035891e-01 2.694763247929471972e-01 -2.553804451506525575e-01 -2.595340793776395802e-02 -4.221969182137646354e-02 -1.395364626927552976e-01 -4.567801332924669722e-01 2.917515398495222276e-02 -3.819780681136379918e-01 -4.860515555270686905e-01 -1.002495160122170437e-01 -3.242791219690726590e-01 8.045280377106409642e-01 1.996410756401828246e-01 -2.177629811820060712e-01 -2.052660138236309384e-01 -2.776866541769052454e-01 3.159452521001608616e-02 -1.866816936526241311e-01 -5.710027089846130277e-01 -1.157012710746127271e-01 -2.816472379975646367e-01 -4.644273108295335906e-01 -3.061824470978861679e-01 -7.928908027773998723e-01 -1.420457411941117853e-01 -7.381351511784235708e-02 -1.637340843290067960e-01 -1.529570687309799448e-01 -5.936869433744516034e-01 -6.391796815618372429e-01 -3.766670773504003367e-01 -1.553359634523592825e-01 -2.086622181530942977e-01 -1.124540683685996967e-01
-7.993574117799384648e-01 -1.079297086192251509e+00 -5.140774461764320291e-01 -7.224686389432526390e-01 2.793341795190163457e-01 -6.712589607768978395e-01 2.468188395374339983e-01 7.354806051893352237e-01 -1.428680059237932953e+00 -4.024064586211206218e-01 -5.817972916766729341e-01 -8.378516376736344640e-01 -3.692950588278298696e-01 -1.200447408823702988e-01 6.288921821091685294e-01 -4.075308741662692635e-01 -2.322839491255225264e-01 -3.144622565969149020e-01 -3.150232660916922334e-01 -4.914706598460854559e-01 -4.418106397746121572e-01 8.955002117763776193e-01 -3.862939680290086164e-01 -5.465577326428253668e-01 -3.005986415624137820e-01 6.651443619278276653e-01 8.000948432964616330e-01 -3.470573191060272733e-01 -4.056592301204310358e-01 -5.514419437373737631e-01 6.168833191379197167e-01 -5.710779781051900095e-01 -5.295845443239760586e-01 -6.251013703514468611e-01 -2.918071940011315868e-01 -5.439778693180756797e-01 -4.652890238756871577e-01 -7.394516441358637282e-01 -7.055461627015019443e-01 -2.901089949392370304e-01 -4.824263063075603375e-01 -5.318785452034913153e-01 -7.208615869702096335e-01 -7.300467103935353030e-01 -1.119711611299700538e+00 -4.779465754745403361e-01 -7.071494150409531887e-01 9.884260730837455267e-01
1.797382680924692888e-01 1.475397215313682675e-01 1.630994827947566117e-01 2.612844126844143244e-01 -3.094099460975214821e-01 -5.463451764865340926e-02 1.446112835448482292e-01 -1.395058653230198398e-01 -2.137005109144040071e-01 -7.730781396854839727e-02 1.488933075409751283e-01 2.171415867428441171e-01 2.705417475483241560e-02 6.169701248817132527e-02 4.604928072905920544e-01 -2.604026266250167865e-01 2.166355817659253724e-01 -3.383501083368283813e-01 1.646845418122109272e-01 7.619066410649263932e-02 2.495015614935951198e-01 3.346863710409457293e-01 1.937850009922125194e-01 1.886579319503998708e-01 1.997256458411169056e-01 -4.329041437591554242e-01 2.229171985397594979e-01 2.475414681530850869e-01 -3.962589094751436947e-02 3.373916879869915397e-01 4.401888949433162557e-01 1.049943598968590963e-01 1.398652394185544712e-01 1.367899095842123880e-01 -5.229924548580832527e-02 8.439513951282716364e-02 -1.271282710513850778e-01 2.320750520105715753e-01 3.172089264359810867e-01 -1.280317349984651243e-02 2.906682733166660593e-01 -1.552039626296786712e-01 -1.157045798065237524e-01 5.516634749900031220e-01 2.336131595106476777e-01 3.540120499819234823e-01 1.587187792512112783e-01 3.189157397752897527e-01
3.063505558619880054e-01 5.829739620663410005e-02 1.521059316143544282e-01 -1.779859905034404943e-01 -1.401161798363655675e-01 -9.954379632786479470e-02 2.938877038675521969e-01 -9.978987394283599099e-02 8.187473679004254878e-02 -8.908075178711319375e-02 1.260467728679531829e-02 7.000605625852967563e-03 4.634204094269583352e-01 4.069409371702935319e-02 2.470906353006828080e-02 2.563332906221632568e-01 8.458446462178852154e-02 1.948011338656741864e-01 2.134474770202560157e-01 -5.285965143956360829e-02 -1.520687229078549786e-02 1.312148251198004267e-01 1.237588090792758888e-01 2.168925292963488349e-01 1.877621177203952496e-01 1.120447391043203657e-02 3.697404185964502793e-02 6.125562172605211186e-01 1.637856007063183128e-01 3.606711162981560831e-02 4.702265356764531723e-02 1.230292460075069344e-01 -1.414874431381170083e-01 2.141370176200478037e-01 3.781428236825153805e-02 3.771034502558220924e-01 3.524805623884954553e-01 2.115433725334252280e-01 1.157024783756340630e-01 3.594436348815235882e-02 1.989531485643469266e-01 3.274658761120532221e-03 3.026509219876731827e-01 -1.546022286112603283e-01 3.050872035883929745e-01 2.060485291983608636e-01 3.705707396790226121e-02 -2.493234606445071666e-01
6.881014946832514356e-02 3.169410090806812907e-01 2.425269042684326248e-01 9.938877857283558159e-02 -8.086130845848928106e-02 -3.388912893953360014e-04 -2.000143725783510573e-01 -1.349121269401837575e-01 -1.007102254776391648e-01 3.133574258628335496e-01 1.745481830195060313e-01 -7.016371125055149982e-02 2.185232093375618148e-02 4.341957438702384042e-01 8.788804979146526766e-03 2.859567119168104354e-01 2.387272404396773295e-01 -1.274156542940283778e-02 3.276114345796828919e-01 2.360145598572634673e-01 2.218148082290677947e-01 5.757274500130871858e-02 6.757990973208491958e-01 1.976314448537843937e-01 1.552457060656224630e-01 -4.291069530068259974e-01 1.455185971835007142e-01 5.685034586873050078e-02 7.674198275549685977e-02 7.301512591816017306e-02 2.381723773752681683e-01 8.193366689045114559e-02 2.407919507716077545e-02 -5.218445922640856452e-03 1.306426508762158212e-01 -6.163728153096726531e-02 2.762170988845011887e-01 -9.575970986460920209e-02 -9.839134106989344541e-02 5.699545501306577111e-02 2.716972751636118621e-01 -1.668477946527804068e-01 3.266745038666574175e-01 -1.396568224849326356e-01 -1.170387353189333429e-01 -1.049229645882963219e-02 1.402775229432196014e-01 -2.095781694157081154e-01
1.913064247992108668e-01 -4.240147853942338035e-02 -3.480484098996997067e-01 8.216735310299719264e-02 2.604428896893716816e-01 1.137060483625411227e-02 -2.975592478180531519e-01 -4.985307995152368082e-02 3.208829210416190292e-01 3.719224322215441414e-01 2.201792951170703505e-01 -7.431882499628053584e-02 2.647707208835112236e-01 8.218445109690965256e-02 2.527091536506261837e-01 8.497947323686472210e-02 -1.424687718376030365e-01 2.746398404162059270e-01 -2.224586944002810429e-01 4.638702318106900369e-01 5.769778009246822048e-01 -6.272953667584989235e-02 2.080522895960399132e-01 1.565152335825986674e-01 2.209699139565362291e-01 -4.481882125266035272e-02 -2.298011773576263683e-01 -2.013279190571324109e-02 2.579683472873271488e-01 2.525878667415728529e-01 -6.915221097704896125e-02 -6.531159613953062271e-02 1.710840551003262877e-01 -2.397910957624394337e-02 3.675761036908463120e-01 3.204811805531279645e-01 2.701138083742993801e-01 1.704148455774681659e-01 1.121304628075526777e-01 2.816865871850122161e-01 -9.838157313627433898e-02 -7.940346396198158518e-02 2.847023862752012247e-01 1.728520330852188758e-01 1.709750994176974515e-01 1.597767955586426869e-01 -2.471909511663232806e-01 3.513960139859341192e-01
